tree
version=v4
num_class=1
num_tree_per_iteration=1
label_index=0
max_feature_idx=55
objective=regression
feature_names=promotional_event holiday_event year month day day_of_week day_of_year week_of_year quarter month_sin month_cos day_sin day_cos dow_sin dow_cos is_weekend is_month_start is_month_end is_quarter_start is_quarter_end demand_lag_1 demand_lag_2 demand_lag_3 demand_lag_7 demand_lag_14 demand_lag_30 demand_rolling_mean_7 demand_rolling_std_7 demand_rolling_min_7 demand_rolling_max_7 demand_rolling_median_7 demand_rolling_q25_7 demand_rolling_q75_7 demand_rolling_mean_14 demand_rolling_std_14 demand_rolling_min_14 demand_rolling_max_14 demand_rolling_median_14 demand_rolling_q25_14 demand_rolling_q75_14 demand_rolling_mean_30 demand_rolling_std_30 demand_rolling_min_30 demand_rolling_max_30 demand_rolling_median_30 demand_rolling_q25_30 demand_rolling_q75_30 demand_ewm_7 demand_ewm_std_7 demand_ewm_30 demand_ewm_std_30 demand_diff_1 demand_diff_7 demand_diff_30 demand_pct_change_1 demand_pct_change_7
feature_infos=[0:1] none [2020:2021] [1:12] [1:31] [0:6] [1:366] [1:53] [1:4] [-1:1] [-1:1] [-0.99871650717105276:0.99871650717105276] [-0.99486932339189504:1] [-0.97492791218182362:0.97492791218182362] [-0.90096886790241903:1] [0:1] none none none none [29.001049725563611:118.23267540927577] [29.001049725563611:118.23267540927577] [29.001049725563611:118.23267540927577] [29.001049725563611:118.23267540927577] [29.001049725563611:118.23267540927577] [29.001049725563611:113.79934987448678] [39.209195479850351:100.97497695159207] [2.191343603977034:14.095606941889381] [29.001049725563611:89.144897808595772] [51.501563026348236:118.23267540927577] [36.379116684104225:97.908863710522439] [34.166868218584696:95.378655109703431] [44.093058330855293:107.63277879955845] [42.769688354257752:95.790398179432373] [3.1367248456289216:12.014962112673544] [29.001049725563611:85.670636243547463] [56.881841077343452:118.23267540927577] [41.646303856465771:95.230945159016798] [35.928073777289605:89.664177830728789] [47.346785653474484:104.77006056734542] [44.132848237212762:94.507583065770007] [4.5746091624873877:10.604230026728812] [29.001049725563611:84.339728667711455] [61.637616343226313:118.23267540927577] [43.984604833334004:94.860173176526914] [37.62451812958264:89.393812479277756] [47.981653535115242:98.568500111766809] [39.534394554808365:101.32350598172192] [2.5423918975787037:14.962377381417008] [44.447935049370244:95.274249357892302] [5.6025691781201967:11.929053551187055] [-38.559701276582409:29.110094638207656] [-32.350627169687776:29.287389864324716] [-31.48276501204316:38.257797671809328] [-0.57074115821118665:0.65562596864016975] [-0.40295151508524552:0.78480876239454478]
tree_sizes=1235 1281 1201 1447 1365 1285 1295 1276 1295 1370 1374 1294 1377 1217 1301 1296 1210 1214 1298 1295 1215 1216 1293 1296 1297 1222 1225 1299 1386 1292 1383 1389 1214 1385 1312 1302 1306 1307 1391 1393 1469 1398 1449 1304 1402 1389 1551 1327 1319 1563 1394 1475 1476 1228 1399 1235 1319 1403 1401 1400 1404 1404 1417 1318 1412 1399 1316 1400 1318 1412 1319 1410 1327 1498 1410 1574 1330 1324 1573 1337 1310 1343 1490 1419 1341 1505 1499 1506 1418 1416 1506 1419 1491 1485 1420 1498 1328 1421 1420 1503 1424 1499 1339 1418 1423 1330 1496 1424 1335 1416 1425 1418 1334 1419 1499 1400 1418 1503 1426 1584 1420 1498 1412 1414 1474 1590 1421 1508 1512 1505 1334 1409 1333 1498 1420 1428 1510 1350 1415 1430 1494 1438 1491 1507 1340 1591 1508 1652 1591 1592 1339 1440 1424 1344 1337 1425 1511 1514 1348 1338 1437 1336 1332 1508 1438 1429 1490 1334 1349 1514 1434 1513 1501 1426 1424 1514 1424 1497 1521 1518 1337 1526 1338 1504 1520 1416 1439 1515 1519

Tree=0
num_leaves=14
num_cat=0
split_feature=47 47 47 47 53 51 51 47 51 14 47 53 47
split_gain=73402.6 14266.4 8503.83 2892.6 2140.23 1897.35 1011.38 803.017 786.588 585.819 352.896 282.014 106.097
threshold=69.09585002010563 83.001394598428064 58.029776658780996 46.420652320675103 13.914668621599544 6.616389049319559 3.5480877418661305 92.38378013995856 4.3903593320118981 1.0000000180025095e-35 50.453634718111992 1.8484132062918877 64.040764850000485
decision_type=2 2 2 2 2 2 2 2 2 2 2 2 2
left_child=2 4 3 -1 9 7 10 11 12 -2 -5 -3 -4
right_child=1 5 8 6 -6 -7 -8 -9 -10 -11 -12 -13 -14
leaf_value=67.36892611626638 69.042559616197153 69.515804714494877 68.297547390487338 67.638557516379748 69.400364934609513 70.319047220979513 68.15795975227276 70.03782748095044 68.742292197300245 68.752889442484175 67.914495794314504 69.778473807997059 68.461296894068212
leaf_weight=30 33 22 21 21 29 22 34 21 23 37 33 24 21
leaf_count=30 33 22 21 21 29 22 34 21 23 37 33 24 21
internal_value=68.7597 69.4534 68.047 67.7942 69.0399 69.9124 67.9406 69.7767 68.5069 68.8897 67.8052 69.6549 68.3784
internal_weight=371 188 183 118 99 89 88 67 65 70 54 46 42
internal_count=371 188 183 118 99 89 88 67 65 70 54 46 42
is_linear=0
shrinkage=1


Tree=1
num_leaves=14
num_cat=0
split_feature=47 47 47 47 53 47 51 51 51 14 47 24 47
split_gain=66300 12280.2 8297.26 2611.16 1922.13 1730.5 913.153 693.013 513.914 457.138 318.667 231.638 145.327
threshold=69.854039651786849 83.001394598428064 58.029776658780996 46.420652320675103 13.914668621599544 92.38378013995856 3.5480877418661305 4.3903593320118981 -7.6197002494725323 1.0000000180025095e-35 50.453634718111992 71.539453225733226 64.040764850000485
decision_type=2 2 2 2 2 2 2 2 2 2 2 2 2
left_child=2 4 3 -1 8 9 10 12 -2 -3 -5 -10 -4
right_child=1 5 7 6 -6 -7 -8 -9 11 -11 -12 -13 -14
leaf_value=-1.3140910779122894 -0.065355419224543021 1.0622628105020968 -0.43177877534622261 -1.0579753134487928 0.63233019590802042 1.3996470522657734 -0.564366449656025 -0.0021245054065933858 0.10910103931246209 0.7656550680973615 -0.79569660486411475 0.33535359228749678 -0.24851351792757936
leaf_weight=30 21 32 21 21 28 32 34 24 21 25 33 25 24
leaf_count=30 21 32 21 21 28 32 34 24 21 25 33 25 24
internal_value=0.00735207 0.681011 -0.655483 -0.910033 0.285109 1.10275 -0.770894 -0.219405 0.139201 0.933828 -0.899553 0.232634 -0.334916
internal_weight=371 184 187 118 95 89 88 69 67 57 54 46 45
internal_count=371 184 187 118 95 89 88 69 67 57 54 46 45
is_linear=0
shrinkage=0.05


Tree=2
num_leaves=13
num_cat=0
split_feature=47 47 47 53 47 53 47 14 14 51 51 52
split_gain=59911.9 12315.3 6286 1779.13 1758.17 1547.26 1493.26 654.757 555.389 503.487 381.009 372.31
threshold=68.525859304008762 80.889199785479136 51.514939874860424 0.25890985342154954 92.38378013995856 13.914668621599544 58.029776658780996 1.0000000180025095e-35 1.0000000180025095e-35 4.0666280637652088 1.9305137249793811 -2.7729247146991507
decision_type=2 2 2 2 2 2 2 2 2 2 2 2
left_child=2 5 3 11 8 7 10 -2 -3 -8 -4 -1
right_child=1 4 6 -5 -6 -7 9 -9 -10 -11 -12 -13
leaf_value=-1.3955719943070293 0.26475232724110964 1.0063701786253809 -0.75990587131611043 -0.73634843308904652 1.3298826669235468 0.55792612047487744 -0.34617265071100589 -0.034586226315362248 0.6972150325775146 -0.04213009127084677 -0.45819641366526859 -1.0655015935945273
leaf_weight=20 35 34 24 34 32 26 39 38 28 21 20 20
leaf_count=20 35 34 24 34 32 26 39 38 28 21 20 20
internal_value=0.00698008 0.617039 -0.654435 -1.00657 1.02665 0.227416 -0.403101 0.10903 0.86818 -0.240088 -0.624229 -1.23373
internal_weight=371 193 178 74 94 99 104 73 62 60 44 40
internal_count=371 193 178 74 94 99 104 73 62 60 44 40
is_linear=0
shrinkage=0.05


Tree=3
num_leaves=16
num_cat=0
split_feature=47 47 47 47 51 53 47 51 51 51 20 47 14 51 41
split_gain=54337.5 11809.6 5143.25 2207.63 1378.67 1327.19 1101.74 855.303 818.071 639.474 417.883 291.749 187.923 133.302 112.685
threshold=73.455223940200312 58.029776658780996 90.418309065476819 47.47814349904035 4.1876046336295341 14.937473848601877 83.001394598428064 6.0711105609916354 1.8427718266577815 4.1876046336295341 63.947194526522573 64.730091839564608 -0.22252093395631442 -6.2930629794447155 7.6331767444193686
decision_type=2 2 2 2 2 2 2 2 2 2 2 2 2 2 2
left_child=1 3 5 8 11 6 14 -4 -1 12 -6 -3 -5 -13 -2
right_child=2 4 7 9 10 -7 -8 -9 -10 -11 -12 13 -14 -15 -16
leaf_value=-1.3406353593437592 0.33317974197182493 -0.37361077289471684 0.99021109475029834 -0.6363090176602979 -0.046625743813775662 0.85730439378069578 0.66794056983743122 1.4126511436196703 -0.88031517427359052 -0.43037470924368809 0.26518094577056506 -0.24868253379763658 -0.83569568176507214 -0.065481516763345515 0.16319982057335367
leaf_weight=21 20 26 35 23 20 23 26 20 20 22 23 20 32 20 20
leaf_count=21 20 26 35 23 20 23 26 20 20 22 23 20 32 20 20
internal_value=0.00661514 -0.475253 0.766065 -0.821656 -0.0997932 0.53007 0.414833 1.1462 -1.1189 -0.662073 0.120267 -0.243206 -0.753713 -0.157598 0.248933
internal_weight=371 227 144 118 109 89 66 55 41 77 43 66 55 40 40
internal_count=371 227 144 118 109 89 66 55 41 77 43 66 55 40 40
is_linear=0
shrinkage=0.05


Tree=4
num_leaves=15
num_cat=0
split_feature=47 47 47 47 51 53 47 51 51 20 47 47 51 47
split_gain=49062.1 10662.9 4643.23 1998.96 1244.84 1198.2 994.543 776.305 713.997 377.338 266.838 247.451 98.3506 85.8973
threshold=73.455223940200312 58.029776658780996 90.418309065476819 46.420652320675103 4.1876046336295341 14.937473848601877 83.001394598428064 1.8427718266577815 3.5480877418661305 63.947194526522573 69.09585002010563 50.453634718111992 -4.4957586824579776 75.981974184590243
decision_type=2 2 2 2 2 2 2 2 2 2 2 2 2 2
left_child=1 3 5 -1 10 6 13 -4 11 -6 12 -5 -3 -2
right_child=2 4 7 8 9 -7 -8 -9 -10 -11 -12 -13 -14 -15
leaf_value=-1.1342411206014134 0.1614148321214007 -0.38826262245130777 0.89687641897235482 -0.91213670929461288 -0.044306056475757957 0.81462475004650292 0.63467150611438961 1.2842416629580113 -0.47656167234318697 0.25197929284531317 -0.097245728066848017 -0.68141490296654827 -0.23160090306225944 0.31026923308399185
leaf_weight=30 20 20 28 21 20 23 26 27 34 23 24 33 22 20
leaf_count=30 20 20 28 21 20 23 26 27 34 23 24 33 22 20
internal_value=0.0062801 -0.451599 0.727924 -0.780756 -0.0948296 0.503688 0.394187 1.08911 -0.659043 0.114273 -0.231106 -0.772753 -0.307066 0.236555
internal_weight=371 227 144 118 109 89 66 55 88 43 66 54 42 40
internal_count=371 227 144 118 109 89 66 55 88 43 66 54 42 40
is_linear=0
shrinkage=0.05


Tree=5
num_leaves=14
num_cat=0
split_feature=47 47 47 47 51 53 51 51 14 47 48 47 48
split_gain=43439.4 8976.28 4525.23 1990.08 1368.04 1163.13 925.915 909.499 483.958 421.233 386.719 278.998 161.674
threshold=72.717293948381155 58.029776658780996 83.001394598428064 47.47814349904035 5.3499597338143348 8.1760006683206026 3.9156662568784992 6.0711105609916354 1.0000000180025095e-35 90.418309065476819 7.5514834577388186 67.573618097230153 6.7986211278826092
decision_type=2 2 2 2 2 2 2 2 2 2 2 2 2
left_child=1 3 5 8 10 -2 12 9 -1 -4 11 -3 -5
right_child=2 4 7 6 -6 -7 -8 -9 -10 -11 -12 -13 -14
leaf_value=-0.83770536675837359 0.1695134201611711 -0.2637009017466509 0.62862380634654647 -0.61978730614652333 0.15164354969242103 0.59295081912037428 -0.32690233779661515 1.168899506496718 -1.1918668733388891 0.91616415386833805 -0.41834422759155726 -0.037276380345878372 -0.80895564752223681
leaf_weight=21 37 30 23 29 34 29 24 25 21 33 20 25 23
leaf_count=21 37 30 23 29 34 29 24 25 21 33 20 25 23
internal_value=-0.00484169 -0.438422 0.66451 -0.740432 -0.111051 0.35626 -0.586216 0.914866 -1.01732 0.799487 -0.23025 -0.161126 -0.704946
internal_weight=374 227 147 118 109 66 76 81 42 56 75 55 52
internal_count=374 227 147 118 109 66 76 81 42 56 75 55 52
is_linear=0
shrinkage=0.05


Tree=6
num_leaves=14
num_cat=0
split_feature=47 47 47 47 54 53 47 54 53 28 54 54 28
split_gain=39221.1 8104.82 4085.61 1797.01 1126.79 1050.07 848.414 798.802 464.477 417.139 334.775 239.834 161.357
threshold=72.717293948381155 58.029776658780996 83.001394598428064 47.47814349904035 0.076923052128160765 8.1760006683206026 92.38378013995856 0.076923052128160765 -6.8078938873548074 60.024736468931501 -0.010906090682721302 -0.070947683761612021 47.741730679775372
decision_type=2 2 2 2 2 2 2 2 2 2 2 2 2
left_child=1 3 5 8 9 -2 10 12 -1 11 -4 -3 -5
right_child=2 4 6 7 -6 -7 -8 -9 -10 -11 -12 -13 -14
leaf_value=-1.1373599047909415 0.16106059752866586 -0.45222758200038132 0.58408704278593382 -0.7547857038491137 0.11393383351836617 0.56340516047789058 1.0886683732783262 -0.32314017645391335 -0.79121463423091642 -0.084769819401372293 0.85162131717350698 -0.20511316169257188 -0.56534470087522026
leaf_weight=21 37 20 21 28 38 29 29 25 21 31 31 20 23
leaf_count=21 37 20 21 28 38 29 29 25 21 31 31 20 23
internal_value=-0.00461199 -0.416604 0.63141 -0.703579 -0.105527 0.338509 0.869296 -0.557027 -0.966697 -0.22305 0.745003 -0.329615 -0.670723
internal_weight=374 227 147 118 109 66 81 76 42 71 52 40 51
internal_count=374 227 147 118 109 66 81 76 42 71 52 40 51
is_linear=0
shrinkage=0.05


Tree=7
num_leaves=14
num_cat=0
split_feature=47 47 47 47 51 51 53 51 47 28 47 5 22
split_gain=35412.4 7317.83 3688.66 1635.45 1129.49 948.711 948.001 804.839 408.247 358.179 271.6 256.518 145.02
threshold=72.717293948381155 58.029776658780996 83.001394598428064 46.420652320675103 5.3499597338143348 3.9156662568784992 8.1760006683206026 6.616389049319559 92.38378013995856 60.024736468931501 50.919923770744397 2.5000000000000004 87.942782872025774
decision_type=2 2 2 2 2 2 2 2 2 2 2 2 2
left_child=1 3 6 -1 9 10 -2 8 12 11 -5 -3 -4
right_child=2 4 7 5 -6 -7 -8 -9 -10 -11 -12 -13 -14
leaf_value=-0.98813181208613698 0.15302927072318095 -0.41666777288758916 0.7328739104579336 -0.78928003698257498 0.13840362179663876 -0.30974152941545441 0.5353317043011131 1.0955805041778708 0.917873606515761 -0.081352066204555318 -0.56937405426830834 -0.17009393613581636 0.53115730297506158
leaf_weight=30 37 23 20 27 34 27 29 21 20 32 34 20 20
leaf_count=30 37 23 20 27 34 27 29 21 20 32 34 20 20
internal_value=-0.00439477 -0.395873 0.599956 -0.66856 -0.100282 -0.55856 0.321642 0.825993 0.729888 -0.208593 -0.667924 -0.302759 0.633716
internal_weight=374 227 147 118 109 88 66 81 60 75 61 43 40
internal_count=374 227 147 118 109 88 66 81 60 75 61 43 40
is_linear=0
shrinkage=0.05


Tree=8
num_leaves=14
num_cat=0
split_feature=47 47 47 47 54 53 54 54 54 47 14 53 28
split_gain=31974.5 6654.32 3331.06 1826.79 881.886 855.846 796.698 714.207 462.355 330.828 229.228 224.594 126.421
threshold=72.717293948381155 61.019467827909232 83.001394598428064 47.6923337412168 0.08348327292289727 8.1760006683206026 0.076923052128160765 0.067330503761235297 0.028485420036524215 90.418309065476819 1.0000000180025095e-35 2.8849398779758002 48.404775251245319
decision_type=2 2 2 2 2 2 2 2 2 2 2 2 2
left_child=1 3 5 8 11 -2 10 9 -1 -4 -3 12 -5
right_child=2 6 7 4 -6 -7 -8 -9 -10 -11 -12 -13 -14
leaf_value=-1.007668638419345 0.14539843230555966 -0.031938840948787087 0.53165091250365948 -0.72683003995213569 -0.22921050110646279 0.50865710108345719 0.15063867450131807 1.0098332397491334 -0.67455658841488964 0.78603687949050949 -0.23226232351710793 -0.42997270176066693 -0.54105256066393492
leaf_weight=25 37 23 23 22 27 29 32 25 20 33 38 20 20
leaf_count=25 37 23 23 22 27 29 32 25 20 33 38 20 20
internal_value=-0.00416395 -0.376155 0.570102 -0.601553 -0.469216 0.305616 -0.0510363 0.784905 -0.861554 0.68278 -0.156988 -0.573117 -0.639979
internal_weight=374 227 147 134 89 66 93 81 45 56 61 62 42
internal_count=374 227 147 134 89 66 93 81 45 56 61 62 42
is_linear=0
shrinkage=0.05


Tree=9
num_leaves=15
num_cat=0
split_feature=47 47 47 47 51 51 53 47 51 14 51 53 48 26
split_gain=28869.6 6008.62 3007.45 1649.23 815.725 793.389 772.647 681.194 417.191 313.623 270.453 216.795 203.654 74.5099
threshold=72.717293948381155 61.019467827909232 83.001394598428064 47.6923337412168 4.1876046336295341 6.4974573449809059 8.1760006683206026 92.38378013995856 1.3492726130888999 -0.22252093395631442 0.20972502934231232 2.8849398779758002 6.3299547448808866 54.820070901998101
decision_type=2 2 2 2 2 2 2 2 2 2 2 2 2 2
left_child=1 3 6 8 11 9 -2 10 -1 -3 -4 13 -11 -5
right_child=2 5 7 4 -6 -7 -8 -9 -10 12 -12 -13 -14 -15
leaf_value=-0.95748594823586508 0.1381481058433692 0.037778550559451798 0.51104309055434749 -0.6867595564132617 -0.22103089024163652 0.22969586729669747 0.48331164841594565 0.94215683166923392 -0.64099655910510922 -0.087121122649525734 0.74653779694954847 -0.40858102651377814 -0.28585786118388617 -0.53721942450869731
leaf_weight=25 37 21 25 21 28 20 29 29 20 25 27 20 27 20
leaf_count=25 37 21 25 21 28 20 29 29 20 25 27 20 27 20
internal_value=-0.00396633 -0.357435 0.541705 -0.571619 -0.445872 -0.0484906 0.290388 0.745809 -0.818668 -0.124984 0.634613 -0.548465 -0.190758 -0.615419
internal_weight=374 227 147 134 89 93 66 81 45 73 52 61 52 41
internal_count=374 227 147 134 89 93 66 81 45 73 52 61 52 41
is_linear=0
shrinkage=0.05


Tree=10
num_leaves=15
num_cat=0
split_feature=47 47 47 54 53 51 53 47 51 54 51 20 50 20
split_gain=26948.3 4634.57 3401.26 1165.6 865.72 808.181 720.713 421.667 281.8 269.351 248.217 214.495 211.871 191.535
threshold=68.335426757013622 78.895733532691295 51.514939874860424 -0.041720923956587656 7.4558684083292741 -3.8047052969678421 2.7685241705311836 91.359332935780529 7.5746583712670601 -0.087592936917064865 2.6026902727449586 59.645995124119089 7.1247959907096119 71.233601963580398
decision_type=2 2 2 2 2 2 2 2 2 2 2 2 2 2
left_child=2 5 6 -3 10 -2 9 -5 13 -1 11 -4 -6 -7
right_child=1 3 4 7 12 8 -8 -9 -10 -11 -12 -13 -14 -15
leaf_value=-0.95341714318118864 -0.036454953069735833 0.41816190953399995 -0.54182858467102057 0.65736367611591418 -0.18451402248435111 0.090740676871722659 -0.49158670799280713 0.9300273131620399 0.41987810675332798 -0.702847696088024 -0.22401364951337122 -0.31657994335861567 0.042282202928813531 0.29343092619630806
leaf_weight=20 34 36 23 34 21 23 30 27 20 29 21 21 20 24
leaf_count=20 34 36 23 34 21 23 30 27 20 29 21 21 20 24
internal_value=-0.00600296 0.399292 -0.439786 0.645989 -0.254252 0.161911 -0.688032 0.779457 0.262554 -0.806956 -0.367631 -0.435399 -0.0739264 0.194751
internal_weight=383 198 185 97 106 101 79 61 67 49 65 44 41 47
internal_count=383 198 185 97 106 101 79 61 67 49 65 44 41 47
is_linear=0
shrinkage=0.05


Tree=11
num_leaves=14
num_cat=0
split_feature=47 47 47 54 53 51 53 47 51 20 5 20 51
split_gain=24331.4 4183.86 3070.74 1052.3 782.824 729.787 652.217 380.633 254.414 214.789 184.582 172.898 135.113
threshold=68.335426757013622 78.895733532691295 51.514939874860424 -0.041720923956587656 9.5811159358427123 -3.8047052969678421 0.25890985342154954 91.359332935780529 7.5746583712670601 59.318741139319663 1.5000000000000002 71.233601963580398 1.1395474282590572
decision_type=2 2 2 2 2 2 2 2 2 2 2 2 2
left_child=2 5 6 -3 9 -2 10 -5 11 12 -1 -7 -4
right_child=1 3 4 7 -6 8 -8 -9 -10 -11 -12 -13 -14
leaf_value=-0.89047033948596244 -0.034637549014822126 0.39731173183449087 -0.50351010483888847 0.62459187619497347 -0.039166228999904275 0.086223283632622133 -0.48964362117300003 0.88369752454581718 0.39898865331168198 -0.23413923516451757 -0.67138011617358451 0.27882026023389889 -0.31687821912539516
leaf_weight=22 34 36 20 34 33 23 35 27 20 32 22 24 21
leaf_count=22 34 36 20 34 33 23 35 27 20 32 22 24 21
internal_value=-0.00571064 0.379402 -0.417895 0.613798 -0.241602 0.153856 -0.653772 0.740618 0.249493 -0.332867 -0.782809 0.18506 -0.409043
internal_weight=383 198 185 97 106 101 79 61 67 73 44 47 41
internal_count=383 198 185 97 106 101 79 61 67 73 44 47 41
is_linear=0
shrinkage=0.05


Tree=12
num_leaves=15
num_cat=0
split_feature=47 47 47 54 53 51 14 47 51 51 50 20 20 53
split_gain=21968.6 3776.98 2772.36 950.011 713.527 659.001 603.586 343.586 229.686 217.808 187.997 172.875 156.072 142.624
threshold=68.335426757013622 78.895733532691295 51.514939874860424 -0.041720923956587656 7.4558684083292741 -3.8047052969678421 1.0000000180025095e-35 91.359332935780529 7.5746583712670601 2.6026902727449586 7.1247959907096119 59.645995124119089 71.233601963580398 3.0887112014731
decision_type=2 2 2 2 2 2 2 2 2 2 2 2 2 2
left_child=2 5 6 -3 9 -2 13 -5 12 11 -6 -4 -7 -1
right_child=1 3 4 7 10 8 -8 -9 -10 -11 -12 -13 -14 -15
leaf_value=-0.59221955769097623 -0.032910750858769731 0.37750117438651842 -0.49158286511640015 0.59345386580637827 -0.17004246051418839 0.081930783649027603 -0.77341316069922617 0.83967569463807268 0.37913847079324486 -0.19807755048806069 0.043582201952957984 -0.28917448927440914 0.26493709047800279 -0.40279853529744331
leaf_weight=20 34 36 23 34 21 23 36 27 20 21 20 21 24 23
leaf_count=20 34 36 23 34 21 23 36 27 20 21 20 21 24 23
internal_value=-0.00543241 0.360504 -0.397093 0.583211 -0.22958 0.146202 -0.62122 0.703715 0.237083 -0.332513 -0.0658612 -0.395967 0.175851 -0.492187
internal_weight=383 198 185 97 106 101 79 61 67 65 41 44 47 43
internal_count=383 198 185 97 106 101 79 61 67 65 41 44 47 43
is_linear=0
shrinkage=0.05


Tree=13
num_leaves=13
num_cat=0
split_feature=47 47 47 54 53 51 53 47 52 54 20 53
split_gain=19835.1 3409.67 2502.8 857.658 646.205 595.084 573.932 310.138 208.398 186.789 197.722 170.728
threshold=68.335426757013622 78.895733532691295 51.514939874860424 -0.041720923956587656 9.5811159358427123 -3.8047052969678421 -9.6194640765920258 91.359332935780529 1.8610775898712577 -0.056098028897589851 55.437152555914729 2.8849398779758002
decision_type=2 2 2 2 2 2 2 2 2 2 2 2
left_child=2 5 6 -3 9 -2 -1 -5 -7 -4 -11 -8
right_child=1 3 4 7 -6 8 11 -9 -10 10 -12 -13
leaf_value=-0.80217737429069746 -0.031270037265357903 0.35867839904290483 -0.39471927624423403 0.56386819179456604 -0.034223227648576576 0.12028932557756154 -0.59107336183459724 0.79784683178271754 0.30004744532487126 -0.33946392242377404 -0.12134272275377789 -0.41072718257157403
leaf_weight=23 34 36 31 34 33 28 28 27 39 21 21 28
leaf_count=23 34 36 31 34 33 28 28 27 39 21 21 28
internal_value=-0.00516562 0.342547 -0.377323 0.554149 -0.218158 0.138929 -0.590277 0.668651 0.22529 -0.301078 -0.231069 -0.501882
internal_weight=383 198 185 97 106 101 79 61 67 73 42 56
internal_count=383 198 185 97 106 101 79 61 67 73 42 56
is_linear=0
shrinkage=0.05


Tree=14
num_leaves=14
num_cat=0
split_feature=47 47 47 54 53 51 54 53 14 51 52 23 20
split_gain=17908.4 3078.33 2259.62 774.279 583.436 537.264 535.114 305.084 246.712 201.66 176.837 149.157 138.249
threshold=68.335426757013622 78.895733532691295 51.514939874860424 -0.041720923956587656 9.5811159358427123 -3.8047052969678421 -0.087592936917064865 9.1321668467418409 1.0000000180025095e-35 7.5746583712670601 3.2017917096688149 58.666098490551782 71.233601963580398
decision_type=2 2 2 2 2 2 2 2 2 2 2 2 2
left_child=2 5 6 -3 10 -2 -1 -5 -8 12 11 -4 -7
right_child=1 3 4 7 -6 9 8 -9 -10 -11 -12 -13 -14
leaf_value=-0.77188961408796342 -0.029711120493731886 0.34079416120151407 -0.41942124771456002 0.54775667940564166 -0.032517235975971392 0.068361766341251212 -0.38986463284562412 0.78717643567339868 -0.60617851467875683 0.34713676538855875 -0.16976168556904897 -0.24308732340991238 0.24053450422168277
leaf_weight=22 34 36 27 39 33 23 34 22 23 20 23 23 24
leaf_count=22 34 36 27 39 33 23 34 22 23 20 23 23 24
internal_value=-0.00491627 0.325476 -0.358538 0.526535 -0.207299 0.132001 -0.560883 0.635334 -0.478145 0.214061 -0.286089 -0.339055 0.15671
internal_weight=383 198 185 97 106 101 79 61 57 67 73 50 47
internal_count=383 198 185 97 106 101 79 61 57 67 73 50 47
is_linear=0
shrinkage=0.05


Tree=15
num_leaves=14
num_cat=0
split_feature=47 47 52 47 31 54 51 14 51 47 5 27 44
split_gain=14941.4 3519.89 1497.69 1092.18 896.978 551.26 544.123 264.653 247.719 148.998 146.252 76.2536 75.7453
threshold=73.624163285448631 61.70101792633352 11.218369472329302 46.420652320675103 85.007281903353615 -0.029451520669182326 4.1876046336295341 1.0000000180025095e-35 2.6026902727449586 53.271611648744987 2.5000000000000004 6.6452619527710395 74.878720921407208
decision_type=2 2 2 2 2 2 2 2 2 2 2 2 2
left_child=1 3 4 -1 8 -3 9 -6 12 -5 -7 -11 -2
right_child=2 5 -4 6 7 10 -8 -9 -10 11 -12 -13 -14
leaf_value=-0.68776318402307934 0.060349067259783763 -0.15416348170288996 0.78703880935772508 -0.48551153511742923 0.57311401756148317 0.013232858488924085 -0.1716145183240938 0.34797950500533692 0.34266775760322954 -0.27757462025720836 0.1737250617880553 -0.41420186166585343 0.19869178391214629
leaf_weight=27 20 39 22 35 33 30 36 23 21 23 27 21 20
leaf_count=27 20 39 22 35 33 30 36 23 21 23 27 21 20
internal_value=-0.00290193 -0.243441 0.408799 -0.401455 0.337023 -0.00948526 -0.333652 0.481522 0.203715 -0.407119 0.0895142 -0.343688 0.129968
internal_weight=377 238 139 142 117 96 115 56 61 79 57 44 40
internal_count=377 238 139 142 117 96 115 56 61 79 57 44 40
is_linear=0
shrinkage=0.05


Tree=16
num_leaves=13
num_cat=0
split_feature=47 47 52 47 47 54 52 20 54 53 23 51
split_gain=13502.1 3252.34 1320.76 830.281 774.442 541.69 486.901 318.69 298.903 281.008 151.68 113.47
threshold=73.932135855521125 58.93269344767139 11.218369472329302 46.420652320675103 88.999027019548052 -0.053671357314215955 6.1145910100353698 63.237500891528235 -0.059587822713428933 0.40334468222835446 52.186050880746997 5.3499597338143348
decision_type=2 2 2 2 2 2 2 2 2 2 2 2
left_child=1 3 4 -1 8 -3 10 -7 -2 -6 -5 -9
right_child=2 5 -4 6 9 7 -8 11 -10 -11 -12 -13
leaf_value=-0.65350192217809244 0.072498624731760566 -0.19485139442201987 0.74786492904386903 -0.47945533267453189 0.3373580315863931 -0.1084049854927136 -0.14243299800330675 0.040439651972085135 0.29453803853458149 0.57719512070625267 -0.3306270826858973 0.18832096852910468
leaf_weight=27 25 38 22 35 23 26 24 30 39 28 37 23
leaf_count=27 25 38 22 35 23 26 24 30 39 28 37 23
internal_value=-0.00275079 -0.228815 0.393115 -0.408227 0.324616 -0.0399723 -0.338583 0.0346154 0.20813 0.470003 -0.403608 0.104943
internal_weight=377 240 137 123 115 117 96 79 64 51 72 53
internal_count=377 240 137 123 115 117 96 79 64 51 72 53
is_linear=0
shrinkage=0.05


Tree=17
num_leaves=13
num_cat=0
split_feature=47 47 51 47 31 51 54 20 20 47 47 48
split_gain=12190.6 2951.08 1206.98 886.467 837.513 457.146 455.268 215.814 138.865 122.999 111.638 60.2546
threshold=73.932135855521125 61.70101792633352 7.4922198297836227 46.420652320675103 85.007281903353615 4.1876046336295341 -0.029451520669182326 90.492888935685087 66.790517036145346 53.271611648744987 76.529507273849745 6.2842240465308938
decision_type=2 2 2 2 2 2 2 2 2 2 2 2
left_child=1 3 4 -1 10 9 -3 -6 -8 -5 -2 -11
right_child=2 6 -4 5 7 -7 8 -9 -10 11 -12 -13
leaf_value=-0.62094738501024427 0.060640616135090177 -0.13867321529656726 0.63700056637882108 -0.44048088826345239 0.30423397000932018 -0.15336837042897034 0.012881341761152552 0.51574543419374919 0.16744615678814637 -0.25521714106140297 0.20958690745601327 -0.37733255740421923
leaf_weight=27 22 39 33 35 21 36 33 31 26 24 30 20
leaf_count=27 22 39 33 35 21 36 33 31 26 24 30 20
internal_value=-0.0026073 -0.217412 0.373541 -0.362986 0.289364 -0.30189 -0.00627325 0.431171 0.0812473 -0.369229 0.146904 -0.311567
internal_weight=377 240 137 142 104 115 98 52 59 79 52 44
internal_count=377 240 137 142 104 115 98 52 59 79 52 44
is_linear=0
shrinkage=0.05


Tree=18
num_leaves=14
num_cat=0
split_feature=47 47 52 47 47 51 54 54 53 5 47 14 14
split_gain=11006.4 2664.55 1131.48 800.257 637.682 412.731 411.027 258.627 249.625 130.012 115.07 106.427 92.8725
threshold=73.932135855521125 61.70101792633352 11.218369472329302 46.420652320675103 88.999027019548052 4.1876046336295341 -0.029451520669182326 -0.078863505389545882 0.40334468222835446 2.5000000000000004 49.779543127106564 -0.56174490092936669 -0.22252093395631442
decision_type=2 2 2 2 2 2 2 2 2 2 2 2 2
left_child=1 3 4 -1 7 10 -3 -2 -6 -8 -5 -9 -12
right_child=2 6 -4 5 8 -7 9 11 -10 -11 12 -13 -14
leaf_value=-0.59001458421404507 0.046391676845054276 -0.13175728870627215 0.68325790107519913 -0.45647885526590681 0.29863973031570384 -0.14572119610874276 0.0064090522107970675 0.34244058683737 0.52440370851564233 0.1551053852691345 -0.23317069523520284 0.18071683090331869 -0.36509955502282876
leaf_weight=27 22 39 22 20 23 36 31 20 28 28 23 22 36
leaf_count=27 22 39 22 20 23 36 31 20 28 28 23 22 36
internal_value=-0.00247665 -0.206582 0.354934 -0.344908 0.291542 -0.286856 -0.00595237 0.185837 0.42347 0.0772044 -0.350841 0.258477 -0.314236
internal_weight=377 240 137 142 115 115 98 64 51 59 79 42 59
internal_count=377 240 137 142 115 115 98 64 51 59 79 42 59
is_linear=0
shrinkage=0.05


Tree=19
num_leaves=14
num_cat=0
split_feature=47 47 47 47 51 54 31 52 20 23 47 52 11
split_gain=9937.87 2416.27 1065.08 569.388 496.187 414.306 378.122 357.35 297.552 121.067 98.222 96.6096 47.1545
threshold=73.932135855521125 58.029776658780996 92.831486475070903 46.420652320675103 7.4922198297836227 -0.053671357314215955 85.007281903353615 6.1145910100353698 63.237500891528235 52.709581912859477 76.529507273849745 5.6464309515603519 0.34685948904333835
decision_type=2 2 2 2 2 2 2 2 2 2 2 2 2
left_child=1 3 4 -1 6 12 10 9 -7 -5 -2 -10 -3
right_child=2 5 -4 7 -6 8 -8 -9 11 -11 -12 -13 -14
leaf_value=-0.56062272096472021 0.048497337994599765 -0.11764762767808352 0.64745934009551998 -0.41899540030378896 0.47102375078011322 -0.10330844804214506 0.33766233526228917 -0.11605250538940325 0.03834836724855447 -0.28327270026081119 0.18915112469204515 0.17659610597619796 -0.2281039832243279
leaf_weight=27 22 20 23 35 25 30 38 21 32 34 29 21 20
leaf_count=27 22 20 23 35 25 30 38 21 32 34 29 21 20
internal_value=-0.00234665 -0.196293 0.337272 -0.358864 0.274134 -0.0414462 0.218306 -0.297725 0.0222332 -0.352697 0.128788 0.0934493 -0.173432
internal_weight=377 240 137 117 114 123 89 90 83 69 51 53 40
internal_count=377 240 137 117 114 123 89 90 83 69 51 53 40
is_linear=0
shrinkage=0.05


Tree=20
num_leaves=13
num_cat=0
split_feature=47 47 47 52 53 47 51 52 14 23 52 20
split_gain=9314.65 2771.52 917.334 790.713 441.688 435.532 370.411 327.941 233.924 182.912 145.902 55.6365
threshold=64.730091839564608 76.238163396266685 50.254098611889312 2.3106746455618503 -10.259745184422025 92.061123233924988 -9.1474154228221192 6.5203941300515718 1.0000000180025095e-35 58.278393533349863 4.8697264306104353 69.365181362836651
decision_type=2 2 2 2 2 2 2 2 2 2 2 2
left_child=2 6 4 8 -1 -5 -2 9 -3 -4 11 -8
right_child=1 3 7 5 -6 -7 10 -9 -10 -11 -12 -13
leaf_value=-0.63558644061969916 -0.15132188294171156 0.34041904721233651 -0.31988208726848788 0.41287127266837748 -0.34585195887442222 0.70795458617368578 -0.023445087548530877 -0.022620043257401454 0.13220785834375617 -0.15276108942285849 0.15914762628127996 0.079719122159526715
leaf_weight=21 21 36 39 33 37 21 26 21 22 29 36 26
leaf_count=21 21 36 39 33 37 21 26 21 22 29 36 26
internal_value=0.0112847 0.216422 -0.297022 0.390988 -0.451755 0.528815 0.0368111 -0.195735 0.261892 -0.249012 0.081884 0.0280951
internal_weight=368 221 147 112 58 54 109 89 58 68 88 52
internal_count=368 221 147 112 58 54 109 89 58 68 88 52
is_linear=0
shrinkage=0.05


Tree=21
num_leaves=13
num_cat=0
split_feature=47 47 47 52 47 53 52 52 14 14 14 33
split_gain=8409.84 2502.4 828.215 714.157 401.435 398.843 296.021 269.519 202.945 158.624 141.12 19.7076
threshold=64.730091839564608 76.238163396266685 50.254098611889312 1.8037877310590533 92.061123233924988 -10.259745184422025 6.5203941300515718 4.8697264306104353 1.0000000180025095e-35 -0.22252093395631442 1.0000000180025095e-35 72.464102972408725
decision_type=2 2 2 2 2 2 2 2 2 2 2 2
left_child=2 7 5 8 -5 -1 9 10 -3 -4 11 -2
right_child=1 3 6 4 -6 -7 -8 -9 -10 -11 -12 -13
leaf_value=-0.60395773530571384 0.0056951625115094495 0.31813064815312031 -0.14690780955466004 0.3877678061160873 0.66536094462709716 -0.32860597133877467 -0.021494402372724073 0.14447153718323721 0.12029784076021746 -0.30262010919163601 -0.09950357684198291 0.07612208212489513
leaf_weight=21 20 35 29 34 22 37 21 37 21 39 32 20
leaf_count=21 20 35 29 34 22 37 21 37 21 39 32 20
internal_value=0.0107215 0.205642 -0.282228 0.371517 0.497903 -0.429256 -0.185982 0.0349712 0.244379 -0.2366 -0.0213528 0.0411353
internal_weight=368 221 147 112 56 58 89 109 56 68 72 40
internal_count=368 221 147 112 56 58 89 109 56 68 72 40
is_linear=0
shrinkage=0.05


Tree=22
num_leaves=14
num_cat=0
split_feature=47 47 53 51 51 20 47 51 53 52 48 5 20
split_gain=7593.05 2259.3 751.893 703.509 320.441 312.697 308.479 202.004 161.665 115.838 84.5972 65.3231 48.4613
threshold=64.730091839564608 76.238163396266685 -10.071488840078326 7.4922198297836227 -9.1474154228221192 89.564019663589605 51.514939874860424 -2.9040252615803896 7.3009056849956844 4.8697264306104353 6.2138745744943611 2.5000000000000004 69.365181362836651
decision_type=2 2 2 2 2 2 2 2 2 2 2 2 2
left_child=2 4 -1 5 -2 -3 11 -8 -7 12 -9 -4 -6
right_child=1 3 6 -5 9 8 7 10 -10 -11 -12 -13 -14
leaf_value=-0.45634416579590431 -0.14174625339666247 0.17900487415854582 -0.36117235710965351 0.58693984761181095 -0.020883829307196469 0.28732443586046846 -0.25613743806902267 -0.13196406537965263 0.47583473327600556 0.14400872005319992 0.008239115587440296 -0.23505269480401308 0.07538969772243409
leaf_weight=39 21 39 23 25 26 27 21 23 21 36 20 21 26
leaf_count=39 21 39 23 25 26 27 21 23 21 36 20 21 26
internal_value=0.0101884 0.195402 -0.268171 0.353014 0.0332307 0.28514 -0.199815 -0.129286 0.370719 0.0751568 -0.0667695 -0.301762 0.0272093
internal_weight=368 221 147 112 109 87 108 64 48 88 43 44 52
internal_count=368 221 147 112 109 87 108 64 48 88 43 44 52
is_linear=0
shrinkage=0.05


Tree=23
num_leaves=14
num_cat=0
split_feature=47 47 47 53 53 53 53 14 51 52 23 48 23
split_gain=6865.8 1574.86 1029.07 499.599 389.414 351.102 305.269 245.021 139.963 119.348 120.382 118.844 97.1531
threshold=69.538806521851726 83.786647193149989 50.453634718111992 6.1963489123665108 17.551252740386808 -10.259745184422025 11.340965093759278 -0.22252093395631442 -6.2930629794447155 -0.10076242971555514 53.840587579853825 6.9286105338120905 61.116743222427402
decision_type=2 2 2 2 2 2 2 2 2 2 2 2 2
left_child=2 4 5 11 7 -1 9 -2 -9 12 -11 -3 -4
right_child=1 3 6 -5 -6 -7 -8 8 -10 10 -12 -13 -14
leaf_value=-0.55119389908573646 0.14816585993155457 0.34310243211943531 -0.29956119806168091 0.51818056506958687 0.28853469722306552 -0.2954321476123522 0.010090514059943434 -0.12606200611413415 0.039359344945068965 -0.20048113225111322 -0.026734726516465048 0.18290867382045248 -0.14970578511259447
leaf_weight=21 35 26 25 36 20 39 29 20 35 20 20 22 20
leaf_count=21 35 26 25 36 20 39 29 20 35 20 20 22 20
internal_value=0.00968037 0.214175 -0.218283 0.377094 0.0894899 -0.3858 -0.129811 0.0449311 -0.0208227 -0.177557 -0.114016 0.270317 -0.233549
internal_weight=368 194 174 84 110 60 114 90 55 85 40 48 45
internal_count=368 194 174 84 110 60 114 90 55 85 40 48 45
is_linear=0
shrinkage=0.05


Tree=24
num_leaves=14
num_cat=0
split_feature=47 47 51 53 54 52 20 20 24 54 51 51 14
split_gain=6219.65 1980.5 610.269 601.385 332.385 291.885 262.219 160.661 145.724 131.864 110.324 58.4281 49.794
threshold=76.238163396266685 60.82943935112089 7.4922198297836227 -13.177546526677657 -0.1121438953148438 6.1145910100353698 89.564019663589605 69.01471815218197 47.819421745832919 -0.035458855409833116 1.6859836629139233 6.3451865131601659 -0.56174490092936669
decision_type=2 2 2 2 2 2 2 2 2 2 2 2 2
left_child=1 3 6 -1 -3 8 -2 11 -5 -8 -9 -6 -10
right_child=2 4 -4 5 7 -7 9 10 12 -11 -12 -13 -14
leaf_value=-0.4990252122734532 0.15942305592472295 -0.14209772085910166 0.53765914145693827 -0.3836242545303421 -0.046939493314830084 -0.077481858130027392 0.26270617596619494 0.053919353705641951 -0.16825032894542111 0.43409285355563187 0.2080550021042501 0.060510848610851889 -0.26675193566601374
leaf_weight=23 39 28 25 20 34 28 28 28 24 20 20 20 31
leaf_count=23 39 28 25 20 34 28 28 28 24 20 20 20 31
internal_value=0.00919406 -0.126754 0.319813 -0.267933 0.0101439 -0.215848 0.25661 0.052083 -0.267266 0.334975 0.118546 -0.00701236 -0.224244
internal_weight=368 256 112 126 130 103 87 102 75 48 48 54 55
internal_count=368 256 112 126 130 103 87 102 75 48 48 54 55
is_linear=0
shrinkage=0.05


Tree=25
num_leaves=13
num_cat=0
split_feature=47 47 47 51 20 51 14 54 47 14 51 20
split_gain=6505.07 1387.8 956.331 534.842 362.881 321.307 268.078 231.003 224.093 136.072 87.9836 84.8112
threshold=72.717293948381155 51.514939874860424 92.831486475070903 8.3000036970378748 62.219426388889651 7.4922198297836227 1.0000000180025095e-35 -0.053671357314215955 76.529507273849745 1.0000000180025095e-35 0.20972502934231232 54.344457328974151
decision_type=2 2 2 2 2 2 2 2 2 2 2 2
left_child=1 6 5 4 10 8 -1 -6 -2 -10 -3 -12
right_child=2 3 -4 -5 7 -7 -8 -9 9 -11 11 -13
leaf_value=-0.23657180231536495 0.049330413945761736 -0.27706300786178034 0.5338798992998659 0.14755425056852248 -0.11847242224592414 0.36153112944641674 -0.42999956304016529 0.058002011864149418 0.27608607220832648 0.12718216068899954 -0.22188715833058292 -0.07708565262864478
leaf_weight=37 29 22 28 24 38 27 36 36 39 26 21 20
leaf_count=37 29 22 28 24 38 27 36 36 39 26 21 20
internal_value=0.0126115 -0.151786 0.270754 -0.0696661 -0.107836 0.209434 -0.332487 -0.0325901 0.165355 0.216888 -0.195948 -0.151733
internal_weight=383 234 149 161 137 121 73 74 94 65 63 41
internal_count=383 234 149 161 137 121 73 74 94 65 63 41
is_linear=0
shrinkage=0.05


Tree=26
num_leaves=13
num_cat=0
split_feature=47 47 47 51 47 54 14 47 14 14 55 55
split_gain=5873.16 1252.79 863.347 482.937 328.819 297.082 241.95 219.579 161.457 96.0945 86.5252 32.3492
threshold=72.717293948381155 51.514939874860424 92.831486475070903 8.3000036970378748 63.562472743247746 -0.10292959099131797 1.0000000180025095e-35 76.529507273849745 1.0000000180025095e-35 -0.22252093395631442 0.037998607424089899 0.028209487071427456
decision_type=2 2 2 2 2 2 2 2 2 2 2 2
left_child=1 6 5 4 9 -2 -1 -7 -6 -3 -9 -11
right_child=2 3 -4 -5 8 7 -8 10 -10 11 -12 -13
leaf_value=-0.22477509104659293 0.027612122370733468 -0.10697254886804314 0.5072808955487832 0.14020715182747587 0.05487673283073477 0.12347996871187757 -0.40855914423670464 0.22763986298840952 -0.099018202417469101 -0.27271201604915457 0.34226174843975526 -0.18007253972600348
leaf_weight=37 21 28 28 24 33 31 36 35 35 21 34 20
leaf_count=37 21 28 28 24 33 31 36 35 35 21 34 20
internal_value=0.0119834 -0.144224 0.257268 -0.0661995 -0.102471 0.199002 -0.315912 0.23488 -0.0242896 -0.1793 0.284606 -0.228192
internal_weight=383 234 149 161 137 121 73 100 68 69 69 41
internal_count=383 234 149 161 137 121 73 100 68 69 69 41
is_linear=0
shrinkage=0.05


Tree=27
num_leaves=14
num_cat=0
split_feature=23 52 52 47 47 23 55 23 55 47 14 23 14
split_gain=5304.47 1297.75 748.911 560.263 480.5 392.154 207.882 196.116 124.344 95.6892 91.1846 82.1599 14.0006
threshold=66.790517036145346 1.8037877310590533 4.7654971872920777 92.530364717594168 88.340762497895625 48.572477029293019 -0.10062644124419394 54.280725805732665 -0.098514520178868512 78.475562655303079 -0.22252093395631442 53.162399494705205 -0.22252093395631442
decision_type=2 2 2 2 2 2 2 2 2 2 2 2 2
left_child=2 4 5 9 6 -1 -2 -4 -7 -3 -8 -10 -13
right_child=1 3 7 -5 -6 8 10 -9 11 -11 -12 12 -14
leaf_value=-0.39895976799324462 -0.10723387164802388 0.20282188493679656 -0.12605945436435884 0.56225711338892936 0.22476966832801112 -0.30786050647052371 0.14272093313042394 0.050251802846640839 -0.24701545170698119 0.32738648948178795 0.006642570469886382 -0.098839797778248292 -0.1561503736209546
leaf_weight=34 26 33 33 21 38 20 22 30 21 31 28 24 22
leaf_count=34 26 33 33 21 38 20 22 30 21 31 28 24 22
internal_value=0.0113859 0.190279 -0.182061 0.338058 0.0798485 -0.25481 0.00712201 -0.0420759 -0.198025 0.263652 0.0667822 -0.164754 -0.126637
internal_weight=383 199 184 85 114 121 76 63 87 64 50 67 46
internal_count=383 199 184 85 114 121 76 63 87 64 50 67 46
is_linear=0
shrinkage=0.05


Tree=28
num_leaves=15
num_cat=0
split_feature=47 47 47 51 20 51 14 14 54 47 20 51 20 54
split_gain=4793.66 1029.03 711.565 410.973 275.933 260.563 212.226 187.386 185.71 132.674 121.861 69.2351 68.664 46.0228
threshold=72.717293948381155 51.514939874860424 92.831486475070903 8.6114293979188279 62.219426388889651 7.4922198297836227 1.0000000180025095e-35 -0.22252093395631442 -0.1121438953148438 88.340762497895625 87.434797322138294 0.20972502934231232 54.344457328974151 0.013839148069165754
decision_type=2 2 2 2 2 2 2 2 2 2 2 2 2 2
left_child=1 6 5 4 11 7 -1 10 -6 -9 -2 -3 -13 -10
right_child=2 3 -4 -5 8 -7 -8 9 13 -11 -12 12 -14 -15
leaf_value=-0.20060142668697109 0.13213662927634873 -0.24125470233179325 0.45939890795330984 0.13559786954741457 -0.13505991113254395 0.31646184270232369 -0.37264852712028906 -0.010879009831474122 -0.013627273297947712 0.16144683483005759 0.29144851036402053 -0.19318725689892521 -0.062934399768594301 0.083504564625240557
leaf_weight=37 26 22 28 23 26 27 36 25 27 20 23 21 20 22
leaf_count=37 26 22 28 23 26 27 36 25 27 20 23 21 20 22
internal_value=0.010817 -0.130305 0.232418 -0.0595876 -0.0922294 0.179516 -0.285909 0.139833 -0.0272824 0.0657875 0.207459 -0.169302 -0.130079 0.0299624
internal_weight=383 234 149 161 138 121 73 94 75 45 49 63 41 49
internal_count=383 234 149 161 138 121 73 94 75 45 49 63 41 49
is_linear=0
shrinkage=0.05


Tree=29
num_leaves=14
num_cat=0
split_feature=23 52 52 47 23 23 23 55 52 47 25 23 14
split_gain=4339.1 1098.91 637.614 465.581 397.859 328.334 152.88 139.912 105.635 81.2324 80.4829 72.2142 11.1008
threshold=66.790517036145346 1.8037877310590533 4.7654971872920777 92.530364717594168 78.25844613778456 48.572477029293019 54.280725805732665 -0.052035384093837338 -5.0205124263658503 78.475562655303079 84.595441618701031 53.162399494705205 -0.22252093395631442
decision_type=2 2 2 2 2 2 2 2 2 2 2 2 2
left_child=2 4 5 9 7 -1 -4 -2 -7 -3 -6 -10 -13
right_child=1 3 6 -5 10 8 -8 -9 11 -11 -12 12 -14
leaf_value=-0.36371237043061916 -0.11983656195297653 0.18417058033345329 -0.1096732368281961 0.51246117166998262 0.090216972878223417 -0.27492264363560742 0.045986525406302929 0.044311926772426874 -0.22374156391451147 0.2989495607817671 0.20605085163119852 -0.084856754954243108 -0.13706798052274008
leaf_weight=34 24 33 33 21 27 22 30 28 21 31 35 23 21
leaf_count=34 24 33 33 21 27 22 30 28 21 31 35 23 21
internal_value=0.0102794 0.172078 -0.16468 0.308065 0.070459 -0.231806 -0.0355149 -0.0314375 -0.17984 0.240224 0.155914 -0.147208 -0.110143
internal_weight=383 199 184 85 114 121 63 52 87 64 62 65 44
internal_count=383 199 184 85 114 121 63 52 87 64 62 65 44
is_linear=0
shrinkage=0.05


Tree=30
num_leaves=15
num_cat=0
split_feature=47 52 52 23 23 55 14 23 23 23 52 53 37 22
split_gain=3433.74 845.281 587.78 572.986 525.439 227.07 212.249 181.838 97.3916 89.8045 74.7832 70.6993 57.28 28.119
threshold=69.538806521851726 11.218369472329302 2.823239565855673 48.377796315275738 75.458087586732859 -0.03640532978481708 1.0000000180025095e-35 55.003739914879326 59.318741139319663 91.261570779623284 -8.5113923178438835 7.5896070632797299 47.497212672293379 55.437152555914729
decision_type=2 2 2 2 2 2 2 2 2 2 2 2 2 2
left_child=2 4 3 -1 6 9 -2 12 13 -6 -10 -7 -4 -5
right_child=1 -3 7 8 5 11 -8 -9 10 -11 -12 -13 -14 -15
leaf_value=-0.43323475720971455 0.11417006302733144 0.44690138821688175 -0.040311782054640165 -0.17238306742740345 0.029732723106747069 0.18659363023359399 -0.077443300565276443 0.060199460005573302 -0.17614188206280579 0.17134050787574029 -0.047685648031918652 0.29813639854736562 -0.15909432918539546 -0.25423934256296027
leaf_weight=24 24 22 20 25 23 27 36 30 21 22 25 33 21 21
leaf_count=24 24 22 20 25 23 27 36 30 21 22 25 33 21 21
internal_value=0.00486471 0.156338 -0.146584 -0.215898 0.117318 0.184714 -0.000652323 -0.0331245 -0.158738 0.0993005 -0.106692 0.248419 -0.101512 -0.210331
internal_weight=374 187 187 116 165 105 60 71 92 45 46 60 41 46
internal_count=374 187 187 116 165 105 60 71 92 45 46 60 41 46
is_linear=0
shrinkage=0.05


Tree=31
num_leaves=15
num_cat=0
split_feature=47 51 20 47 51 14 20 54 20 48 52 14 52 27
split_gain=3100.58 824.973 543.746 533.348 280.695 209.973 133.587 112.948 111.859 110.652 105.2 97.5273 52.8265 44.0001
threshold=69.538806521851726 12.013659143203812 87.434797322138294 46.420652320675103 3.6227721131386201 1.0000000180025095e-35 64.231369088416884 -0.049097798393085305 60.043541225770291 7.4540962330699552 4.2582984966639268 -0.22252093395631442 1.0000000180025095e-35 7.3647164735915061
decision_type=2 2 2 2 2 2 2 2 2 2 2 2 2 2
left_child=3 2 5 -1 6 12 7 -5 13 -7 11 -4 -2 -6
right_child=1 -3 10 4 8 9 -8 -9 -10 -11 -12 -13 -14 -15
leaf_value=-0.34913138992713333 0.060992630934054708 0.44321143774059713 0.25479119552038104 -0.26840555478766115 -0.11995565815648035 0.030754121049602259 -0.071042810339840404 -0.1382473575832594 0.0768113161858857 -0.12069277608705359 0.32309254164719464 0.10100715972890902 0.15979188662379182 -0.014799319860057451
leaf_weight=26 29 21 22 30 20 28 32 39 20 21 20 20 26 20
leaf_count=26 29 21 22 30 20 28 32 39 20 21 20 20 26 20
internal_value=0.00461943 0.148557 0.111007 -0.139294 -0.105181 0.0409993 -0.156033 -0.195217 -0.0193788 -0.0341635 0.228104 0.182093 0.107994 -0.0676702
internal_weight=374 187 166 187 161 104 101 69 60 49 62 42 55 40
internal_count=374 187 166 187 161 104 101 69 60 49 62 42 55 40
is_linear=0
shrinkage=0.05


Tree=32
num_leaves=13
num_cat=0
split_feature=47 51 53 20 47 54 53 53 48 52 20 52
split_gain=2799.69 744.862 515.749 491.008 265.674 191.074 170.591 101.814 91.3249 84.5822 54.6966 48.6073
threshold=69.538806521851726 12.013659143203812 -12.70859039511326 87.434797322138294 51.514939874860424 -0.01204165626064768 9.5811159358427123 -1.0075792857836132 7.3244630419689027 2.823239565855673 71.382437221035119 1.7584700280511927
decision_type=2 2 2 2 2 2 2 2 2 2 2 2
left_child=2 3 -1 5 9 8 11 -5 -2 -4 -7 -6
right_child=1 -3 4 7 6 10 -8 -9 -10 -11 -12 -13
leaf_value=-0.31154469246680644 0.030232427946264812 0.42115588664867298 -0.2306462479476705 0.13199343872921807 -0.13552040745698113 0.031793587571427001 0.04014608459660126 0.26616038404157399 -0.11042383203948786 -0.10174739769002272 0.1344683464010322 -0.046028956495145879
leaf_weight=33 24 21 34 23 34 20 37 39 22 21 38 28
leaf_count=33 24 21 34 23 34 20 37 39 22 21 38 28
internal_value=0.00439338 0.14117 -0.132359 0.105487 -0.0937518 0.038958 -0.0446543 0.216762 -0.0370231 -0.181795 0.099265 -0.0953246
internal_weight=374 187 187 166 154 104 99 62 46 55 58 62
internal_count=374 187 187 166 154 104 99 62 46 55 58 62
is_linear=0
shrinkage=0.05


Tree=33
num_leaves=15
num_cat=0
split_feature=47 51 20 54 14 14 28 48 52 14 20 52 29 25
split_gain=2535.2 871.584 552.577 469.32 210.182 182.273 151.216 95.4462 92.768 85.8952 78.9637 69.5902 63.6159 36.4648
threshold=64.730091839564608 12.241710816850846 87.434797322138294 -0.10292959099131797 1.0000000180025095e-35 -0.22252093395631442 41.688774087853652 7.4540962330699552 4.2582984966639268 -0.22252093395631442 51.815151542187571 4.7654971872920777 61.58856480939243 69.103127218911126
decision_type=2 2 2 2 2 2 2 2 2 2 2 2 2 2
left_child=3 2 4 6 11 12 -1 -6 9 -4 -7 13 -5 -2
right_child=1 -3 8 5 7 10 -8 -9 -10 -11 -12 -13 -14 -15
leaf_value=-0.39358835054274222 -0.0065277009053313316 0.42811026181747663 0.23098629691482131 -0.087210653152361331 0.012667420631017855 -0.20072163007077895 -0.19903148243212587 -0.11297607144471465 0.29511147031736612 0.086745101776882189 -0.08392221963968266 0.14426871244911621 0.022244243315185729 0.082230112830871144
leaf_weight=20 20 20 22 25 34 38 21 27 20 20 24 28 28 27
leaf_count=20 20 20 22 25 34 38 21 27 20 20 24 28 28 27
internal_value=0.00417531 0.11429 0.0823655 -0.149645 0.0258743 -0.097645 -0.294786 -0.0429573 0.20596 0.162788 -0.155797 0.0819065 -0.0293583 0.044421
internal_weight=374 218 198 156 136 115 41 61 62 42 62 75 53 47
internal_count=374 218 198 156 136 115 41 61 62 42 62 75 53 47
is_linear=0
shrinkage=0.05


Tree=34
num_leaves=14
num_cat=0
split_feature=47 47 52 54 54 14 14 52 52 14 4 52 47
split_gain=2311.47 781.776 465.959 378.275 203.411 166.939 148.783 74.3194 57.3132 55.9835 40.3526 37.0342 26.8095
threshold=76.238163396266685 61.019467827909232 9.2791229954128642 -0.10292959099131797 -0.021683378063479194 -0.22252093395631442 1.0000000180025095e-35 5.6464309515603519 2.3106746455618503 1.0000000180025095e-35 13.500000000000002 2.823239565855673 71.339789276250954
decision_type=2 2 2 2 2 2 2 2 2 2 2 2 2
left_child=1 3 6 -1 9 11 10 12 -7 -3 -2 -5 -6
right_child=2 4 -4 5 7 8 -8 -9 -10 -11 -12 -13 -14
leaf_value=-0.30095099993359681 0.15230300551988324 5.9339234614259249e-05 0.4154707650640117 -0.084554600568883351 -0.018725674571585357 -0.21906761660198987 0.063581095667403983 0.11447823106223703 -0.10747799090485073 -0.10291212872732061 0.23953077416239738 0.005867204889317983 0.059395135824211791
leaf_weight=36 27 21 20 23 24 29 33 35 20 35 29 22 20
leaf_count=36 27 21 20 23 24 29 33 35 20 35 29 22 20
internal_value=0.00396947 -0.0757385 0.197693 -0.163206 0.00851055 -0.110135 0.148286 0.0601863 -0.173934 -0.0642774 0.19791 -0.0403225 0.0167246
internal_weight=374 265 109 130 135 94 89 79 49 56 56 45 44
internal_count=374 265 109 130 135 94 89 79 49 56 56 45 44
is_linear=0
shrinkage=0.05


Tree=35
num_leaves=14
num_cat=0
split_feature=47 47 53 54 14 5 27 47 53 51 32 48 47
split_gain=2244.02 707.745 427.726 392.08 182.11 161.74 107.388 75.0412 56.5111 52.2916 50.123 38.6882 37.3537
threshold=62.308397894322063 77.48094348309219 13.914668621599544 -0.13985338764853597 1.0000000180025095e-35 2.5000000000000004 8.8027554023793204 90.418309065476819 -5.1175021568391363 -6.9468949450105972 53.463961188791352 7.391409108917812 70.737793731720373
decision_type=2 2 2 2 2 2 2 2 2 2 2 2 2
left_child=3 4 6 -1 11 8 7 -3 -5 -6 -7 12 -2
right_child=1 2 -4 5 9 10 -8 -9 -10 -11 -12 -13 -14
leaf_value=-0.3589889274954231 3.6147714085426184e-05 0.098690200341281606 0.39109602166578106 -0.24684217848302997 -0.1165181301867784 -0.12099016337420171 0.050841089355874336 0.22206367455269935 -0.14538922491420633 -0.016548587399928434 -0.032040555032115739 0.11374578472652999 0.084213261024291775
leaf_weight=21 28 20 21 23 20 28 25 34 37 38 37 27 25
leaf_count=21 28 20 21 23 20 28 25 34 37 38 37 27 25
internal_value=-0.00506416 0.0895802 0.190802 -0.159337 0.0161098 -0.125496 0.137069 0.176729 -0.184709 -0.0512481 -0.0705611 0.0650097 0.0399203
internal_weight=384 238 100 146 138 125 79 54 60 58 65 80 53
internal_count=384 238 100 146 138 125 79 54 60 58 65 80 53
is_linear=0
shrinkage=0.05


Tree=36
num_leaves=14
num_cat=0
split_feature=47 47 53 54 14 52 14 51 52 52 32 48 47
split_gain=2026.25 639.056 386.188 358.696 164.46 138.209 99.6353 97.2224 59.2671 48.3563 42.973 34.9121 33.7183
threshold=62.308397894322063 77.48094348309219 13.914668621599544 -0.10292959099131797 1.0000000180025095e-35 8.6495757551852055 -0.22252093395631442 -1.9225768932409435 1.0328244023367292 -2.375090999457441 55.136852615376377 7.391409108917812 70.737793731720373
decision_type=2 2 2 2 2 2 2 2 2 2 2 2 2
left_child=3 4 7 -1 11 6 -5 9 -6 -3 -8 12 -2
right_child=1 2 -4 5 8 -7 10 -9 -10 -11 -12 -13 -14
leaf_value=-0.29634666050308783 3.4345840219925296e-05 0.022883817751260731 0.37163389832028565 -0.073043149958609999 -0.095763839807636864 0.010158608675892675 -0.23292344719576083 0.18790835133531278 0.0053025923105733423 0.13185318954548431 -0.1402576040627429 0.10807948203764278 0.080019373620815751
leaf_weight=33 28 21 21 39 31 20 22 38 27 20 32 27 25
leaf_count=33 28 21 21 39 31 20 22 38 27 20 32 27 25
internal_value=-0.0048113 0.0851228 0.181308 -0.151408 0.0153067 -0.108812 -0.134435 0.130245 -0.0487015 0.0763527 -0.178464 0.0617778 0.0379369
internal_weight=384 238 100 146 138 113 93 79 58 41 54 80 53
internal_count=384 238 100 146 138 113 93 79 58 41 54 80 53
is_linear=0
shrinkage=0.05


Tree=37
num_leaves=14
num_cat=0
split_feature=23 55 55 23 53 23 52 5 52 23 14 14 23
split_gain=1839.49 619.848 400.689 293.846 226.6 182.438 151.003 86.8507 86.0925 82.2024 45.3203 34.5773 31.4966
threshold=74.189045399251356 -0.084350263327133176 -0.03640532978481708 61.116743222427402 13.914668621599544 58.278393533349863 8.6495757551852055 1.5000000000000002 -0.96647422243539072 87.434797322138294 1.0000000180025095e-35 -0.22252093395631442 51.262705524136514
decision_type=2 2 2 2 2 2 2 2 2 2 2 2 2
left_child=1 5 10 6 9 -1 7 -3 -5 -4 -2 -10 -9
right_child=2 3 4 8 -6 -7 -8 12 11 -11 -12 -13 -14
leaf_value=-0.36357808030066802 0.079602481451485782 -0.18957444739804044 0.11188910660454601 -0.055346576774500278 0.36225327643173 -0.16125476433399538 0.005355627543371981 -0.13558365396514735 0.09680315110818706 0.23863843075640792 -0.012678426392932438 0.021256570987658114 -0.057681269709617344
leaf_weight=20 39 36 30 25 21 26 27 22 27 23 20 35 33
leaf_count=20 39 36 30 25 21 26 27 22 27 23 20 35 33
internal_value=-0.00456644 -0.0842316 0.145692 -0.0469229 0.22313 -0.249928 -0.0982993 -0.129081 0.0227356 0.167334 0.0482677 0.0543393 -0.0891225
internal_weight=384 251 133 205 74 46 118 91 87 53 59 62 55
internal_count=384 251 133 205 74 46 118 91 87 53 59 62 55
is_linear=0
shrinkage=0.05


Tree=38
num_leaves=15
num_cat=0
split_feature=23 55 52 23 23 55 5 52 23 23 28 23 48 5
split_gain=1660.93 559.714 372.547 266.282 165.247 154.024 112.515 110.826 89.2113 61.438 53.2065 31.1673 23.6607 15.5547
threshold=74.189045399251356 -0.084350263327133176 7.2358092035555197 54.280725805732665 59.318741139319663 -0.07109876698976729 1.5000000000000002 9.2791229954128642 88.787809330299169 67.425753451985685 38.941135685243779 90.492888935685087 5.4682138226427304 2.5000000000000004
decision_type=2 2 2 2 2 2 2 2 2 2 2 2 2 2
left_child=1 4 5 6 -1 11 -3 9 -7 12 -8 -2 -5 -14
right_child=2 3 -4 7 -6 8 10 -9 -10 -11 -12 -13 13 -15
leaf_value=-0.3323441705662451 -0.011007321066381526 -0.1875168480977091 0.32117761128392575 -0.0044658908481473355 -0.14139865569738083 0.096074212188870134 -0.015166311182705056 0.10338486109384044 0.21397643640278952 0.030939178016147203 -0.1185491749252456 0.073204011748086148 -0.10156693947258717 -0.041278337853359964
leaf_weight=23 24 32 23 20 23 37 25 22 29 37 25 20 21 23
leaf_count=23 24 32 23 20 23 37 25 22 29 37 25 20 21 23
internal_value=-0.00433825 -0.0800387 0.13844 -0.0445844 -0.237494 0.0999291 -0.114319 0.00191952 0.148201 -0.0202128 -0.067091 0.0272364 -0.0498652 -0.0703309
internal_weight=384 251 133 205 46 110 82 123 66 101 50 44 64 44
internal_count=384 251 133 205 46 110 82 123 66 101 50 44 64 44
is_linear=0
shrinkage=0.05


Tree=39
num_leaves=15
num_cat=0
split_feature=23 47 51 14 52 55 20 23 48 51 24 52 22 20
split_gain=1499.72 512.831 343.228 217.962 210.892 131.039 82.614 77.0491 71.7047 68.031 42.3312 40.8695 26.8856 19.4702
threshold=74.189045399251356 51.514939874860424 8.7580833977015988 1.0000000180025095e-35 7.7864123921658797 -0.03640532978481708 59.645995124119089 87.434797322138294 6.7278458357349065 6.616389049319559 87.192795247250544 1.8610775898712577 58.666098490551782 67.425753451985685
decision_type=2 2 2 2 2 2 2 2 2 2 2 2 2 2
left_child=1 3 5 11 6 10 12 -7 13 -6 -2 -1 -3 -8
right_child=2 4 -4 -5 9 7 8 -9 -10 -11 -12 -13 -14 -15
leaf_value=-0.15517812708111256 0.0047988182756296249 -0.075940743984991343 0.29428598058063865 -0.27318509764288273 0.0065472574376348241 0.097425693085423343 -0.022502999284600849 0.22323934619460625 -0.08612538607639128 0.13710873761580358 0.094638663925830785 -0.054524404975757772 -0.15151508043254663 0.038524047392366943
leaf_weight=20 35 27 26 36 20 30 26 21 33 20 21 21 22 26
leaf_count=20 35 27 26 36 20 30 26 21 33 20 21 21 22 26
internal_value=-0.00412413 -0.0760578 0.131548 -0.183418 -0.0284411 0.0917197 -0.0585315 0.149665 -0.0285852 0.0721318 0.0386865 -0.104004 -0.110213 0.00792993
internal_weight=384 251 133 77 174 107 134 51 85 40 56 41 49 52
internal_count=384 251 133 77 174 107 134 51 85 40 56 41 49 52
is_linear=0
shrinkage=0.05


Tree=40
num_leaves=16
num_cat=0
split_feature=23 53 48 53 23 25 40 51 14 5 7 20 54 48 25
split_gain=1561.2 392.872 433.15 290.043 119.305 113.751 82.5395 63.0925 60.6139 51.065 44.0083 40.6109 21.1786 16.6013 5.73486
threshold=66.790517036145346 2.8849398779758002 9.9101950446162324 -14.90085820105144 51.262705524136514 88.191183096137763 79.931002649732434 7.3251348193898602 1.0000000180025095e-35 2.5000000000000004 16.500000000000004 58.834131598920358 -0.1121438953148438 7.0506868760847592 57.907535925377182
decision_type=2 2 2 2 2 2 2 2 2 2 2 2 2 2 2
left_child=3 5 6 -1 9 8 13 11 -2 -5 -7 -6 -13 -3 -14
right_child=1 2 -4 4 7 10 -8 -9 -10 -11 -12 12 14 -15 -16
leaf_value=-0.26967564871138577 0.03698366285298843 0.040128229728718684 0.3758172553570116 -0.17870527079682261 -0.11414441176262616 0.1480365959566031 0.17134434487051367 0.031784937164406356 -0.060150490830978093 -0.082685050368309018 0.043789877784901884 -0.082913363161519982 -0.038552958249758504 0.10044044195655806 -0.00047528581712302288
leaf_weight=22 32 22 20 31 28 20 39 21 32 26 21 20 20 25 20
leaf_count=22 32 22 20 31 28 20 39 21 32 26 21 20 20 25 20
internal_value=0.00538401 0.0987315 0.166601 -0.0993539 -0.0766023 0.0300747 0.117508 -0.0458096 -0.0115235 -0.135216 0.095 -0.0643982 -0.0409489 0.0724605 -0.0196875
internal_weight=399 211 106 188 166 105 86 109 64 57 41 88 60 47 40
internal_count=399 211 106 188 166 105 86 109 64 57 41 88 60 47 40
is_linear=0
shrinkage=0.05


Tree=41
num_leaves=15
num_cat=0
split_feature=47 51 47 20 5 51 52 14 21 48 14 50 55 52
split_gain=1363.97 414.186 256.398 192.979 179.637 123.904 84.7511 70.578 65.1862 50.9724 46.5918 34.0533 17.0058 13.1967
threshold=69.538806521851726 13.198177816912493 50.453634718111992 87.434797322138294 1.5000000000000002 -3.024012777081047 1.8037877310590533 1.0000000180025095e-35 44.709225905028084 7.2851408999847127 -0.56174490092936669 7.4326286654871412 -0.034733451890190441 1.0000000180025095e-35
decision_type=2 2 2 2 2 2 2 2 2 2 2 2 2 2
left_child=2 3 4 7 -1 -5 10 13 -6 -9 -4 -8 -12 -2
right_child=1 -3 6 5 8 -7 11 9 -10 -11 12 -13 -14 -15
leaf_value=-0.28555443308472095 0.046267728624567163 0.31072620237941173 -0.017011869057871717 0.07000793748788757 -0.045711443590891868 0.20078450894586927 -0.033482604871547091 0.02800061487145954 -0.16579805886246768 -0.072005006448493752 -0.13258415783003133 0.049460105852084865 -0.075686603835423055 0.094626387600141124
leaf_weight=22 33 20 21 37 21 36 28 32 25 21 28 22 27 26
leaf_count=22 33 20 21 37 21 36 28 32 25 21 28 22 27 26
internal_value=0.0051157 0.0950363 -0.0898777 0.0715361 -0.168088 0.134755 -0.0475295 0.0302027 -0.111302 -0.0115911 -0.0807578 0.00293827 -0.104931 0.067787
internal_weight=399 205 194 185 68 73 126 112 46 53 76 50 55 59
internal_count=399 205 194 185 68 73 126 112 46 53 76 50 55 59
is_linear=0
shrinkage=0.05


Tree=42
num_leaves=16
num_cat=0
split_feature=23 52 55 29 23 23 52 51 14 5 48 23 48 11 14
split_gain=1289.93 429.42 292.391 245.565 121.255 112.35 68.5004 53.5014 48.9082 44.7183 35.4798 32.041 18.7043 16.0164 15.6358
threshold=66.790517036145346 1.8037877310590533 -0.10542325104745774 101.80969531635809 78.989299003018019 51.262705524136514 -3.1395664193363362 6.616389049319559 -0.56174490092936669 1.5000000000000002 7.0601036326383779 73.260030122419479 5.1404000745509837 -0.25033082153100961 -0.22252093395631442
decision_type=2 2 2 2 2 2 2 2 2 2 2 2 2 2 2
left_child=2 4 -1 11 6 9 -2 12 -6 -4 -10 -3 -7 -13 -14
right_child=1 3 5 -5 8 7 -8 -9 10 -11 -12 13 14 -15 -16
leaf_value=-0.22786494524586609 -0.086458757819526222 0.081589191838233308 -0.17392482455499572 0.32903027299476501 0.13528748607069119 -0.010029248323510676 0.026206240489362032 0.038852143100551351 0.08515235689179651 -0.082095124301874739 0 0.18699763459616928 -0.029052402049451326 0.12242348206481098 -0.085105558726777386
leaf_weight=32 25 24 22 20 22 22 29 22 26 35 23 21 20 21 35
leaf_count=32 25 24 22 20 22 22 29 22 26 35 23 21 20 21 35
internal_value=0.00485831 0.0897104 -0.0903451 0.175651 0.0304498 -0.061976 -0.0259245 -0.0296587 0.0733725 -0.117868 0.0452532 0.12867 -0.049323 0.155197 -0.0649031
internal_weight=399 211 188 86 125 156 54 99 71 57 49 66 77 42 55
internal_count=399 211 188 86 125 156 54 99 71 57 49 66 77 42 55
is_linear=0
shrinkage=0.05


Tree=43
num_leaves=14
num_cat=0
split_feature=23 52 55 55 23 23 55 51 5 23 5 23 22
split_gain=1164.8 391.087 264.312 165.401 132.162 102.721 69.927 46.5478 41.1953 18.234 17.8921 14.507 14.3748
threshold=66.790517036145346 11.218369472329302 -0.098514520178868512 -0.10673926742899158 91.261570779623284 51.262705524136514 -0.012002925735821566 6.616389049319559 1.5000000000000002 84.354535886642552 2.5000000000000004 76.559901977311782 71.459671192175094
decision_type=2 2 2 2 2 2 2 2 2 2 2 2 2
left_child=2 3 -1 -2 6 8 11 10 -4 12 -7 -5 -8
right_child=1 -3 5 4 -6 7 9 -9 -10 -11 -12 -13 -14
leaf_value=-0.21189097384457911 -0.031203682400533912 0.27060309912104058 -0.167414489613393 -0.018550128095711653 0.17612615584895927 -0.07037261431494532 0.0996710786988452 0.036918324940075159 -0.078002062142744355 0.12975228345154019 -0.021543112259043755 0.0386685372840158 0.045744829884622674
leaf_weight=34 39 25 21 22 31 37 26 22 35 21 39 22 25
leaf_count=34 39 25 21 22 31 37 26 22 35 21 39 22 25
internal_value=0.00461922 0.0852515 -0.0858483 0.0601798 0.0844631 -0.0578688 0.0597933 -0.0268834 -0.11186 0.0901163 -0.0454423 0.00996864 0.0734757
internal_weight=399 211 188 186 147 154 116 98 56 72 76 44 51
internal_count=399 211 188 186 147 154 116 98 56 72 76 44 51
is_linear=0
shrinkage=0.05


Tree=44
num_leaves=15
num_cat=0
split_feature=23 55 52 23 23 55 52 23 14 22 55 50 6 55
split_gain=1053.23 351.47 312.921 180.159 157.717 88.5496 51.6648 72.5923 50.9902 42.6588 38.5164 17.6254 13.6202 13.0633
threshold=74.602754851142691 -0.040167653507888194 9.4816095053785698 62.219426388889651 53.840587579853825 -0.03640532978481708 8.6495757551852055 47.202308178626893 1.0000000180025095e-35 91.207918456616127 0.059371625239185384 7.9315740586226813 304.50000000000006 0.055451912831277712
decision_type=2 2 2 2 2 2 2 2 2 2 2 2 2 2
left_child=1 4 5 6 -1 8 7 -3 -2 -7 -5 -6 13 -9
right_child=2 3 -4 10 11 9 -8 12 -10 -11 -12 -13 -14 -15
leaf_value=-0.2721622207271519 0.073136897496830208 -0.16463057109669074 0.29613000227147668 0.0023313598553320082 -0.067387763822256627 0.15656161534283169 -0.0049535996890147267 -0.065741727519696105 -0.023661096270474212 0.071960953590404456 0.073620952530874043 -0.13064643453627936 -0.089321892823449406 -0.010285798251911364
leaf_weight=20 38 20 20 38 20 39 30 22 21 25 38 27 20 21
leaf_count=20 38 20 20 38 20 39 30 22 21 25 38 27 20 21
internal_value=0.00439012 -0.0563068 0.113049 -0.0213627 -0.154627 0.0830223 -0.0613923 -0.0817012 0.038617 0.123756 0.0380918 -0.104034 -0.055076 -0.0388613
internal_weight=399 256 143 189 67 123 113 83 59 64 76 47 63 43
internal_count=399 256 143 189 67 123 113 83 59 64 76 47 63 43
is_linear=0
shrinkage=0.05


Tree=45
num_leaves=15
num_cat=0
split_feature=23 52 52 23 47 23 48 51 54 4 20 52 52 5
split_gain=724.789 281.449 169.546 152.896 150.931 96.708 50.3852 32.5018 26.9243 23.1591 21.9111 20.3296 15.6255 13.0163
threshold=65.202262122974517 1.8037877310590533 2.823239565855673 48.377796315275738 92.38378013995856 78.25844613778456 7.2015919996637434 7.3251348193898602 -0.053671357314215955 14.500000000000002 58.590051811744743 -2.2453897635565876 -5.0205124263658503 2.5000000000000004
decision_type=2 2 2 2 2 2 2 2 2 2 2 2 2 2
left_child=2 5 3 -1 9 6 11 10 -7 -3 -4 -2 -5 -14
right_child=1 4 7 12 -6 8 -8 -9 -10 -11 -12 -13 13 -15
leaf_value=-0.22098784783981024 -0.031790825694947698 0.05519767588355004 -0.080738489926506424 -0.11606924071373692 0.24881716470479667 0.013829564995661812 -0.084687147506466318 0.025652359123051912 0.081451368112774453 0.11726307265481131 -0.014069570650473732 0.038447586948855361 -0.093083218809727308 -0.040769075940685913
leaf_weight=28 20 27 23 25 20 24 26 24 39 36 27 21 24 25
leaf_count=28 20 27 23 25 20 24 26 24 39 36 27 21 24 25
internal_value=-0.00464558 0.0573685 -0.0797151 -0.121496 0.129245 0.0113755 -0.0303739 -0.021972 0.0558327 0.0908725 -0.044937 0.00406931 -0.0835351 -0.0666316
internal_weight=389 213 176 102 83 130 67 74 63 63 50 41 74 49
internal_count=389 213 176 102 83 130 67 74 63 63 50 41 74 49
is_linear=0
shrinkage=0.05


Tree=46
num_leaves=17
num_cat=0
split_feature=23 52 52 23 23 23 48 55 52 51 20 52 23 52 5 41
split_gain=654.473 254.136 153.083 139.448 138.634 87.3181 45.996 30.5338 30.0916 29.3543 19.7756 17.2058 17.0585 14.5913 7.62639 5.24595
threshold=65.202262122974517 1.8037877310590533 2.823239565855673 86.962780610904488 48.901901759095871 78.25844613778456 7.7653160328731481 -0.11222210206346332 9.4816095053785698 7.3251348193898602 58.590051811744743 -5.0205124263658503 91.063426137145626 -1.3797390442694739 2.5000000000000004 7.8576296833029344
decision_type=2 2 2 2 2 2 2 2 2 2 2 2 2 2 2 2
left_child=2 5 4 8 -1 6 13 -7 15 10 -4 -6 -9 -2 -13 -3
right_child=1 3 9 -5 11 7 -8 12 -10 -11 -12 14 -14 -15 -16 -17
leaf_value=-0.20365546355293496 -0.025475816529287005 0.076293042895353227 -0.076719039997884209 0.23065915210214674 -0.11028889988463714 0.0017289119573374884 -0.089986307810444685 0.043793752987237901 0.1339477445800506 0.02437506398472054 -0.013368688072885535 -0.08048797411958894 0.10763873669289355 0.031196914871793185 -0.038738743675894943 0.039361754815969895
leaf_weight=31 26 21 23 22 25 20 21 21 20 24 27 21 22 20 25 20
leaf_count=31 26 21 23 22 25 20 21 21 20 24 27 21 22 20 25 20
internal_value=-0.0044146 0.0545139 -0.0757504 0.122814 -0.115451 0.0108074 -0.028861 0.0530525 0.0835238 -0.020878 -0.0427046 -0.076637 0.0767486 -0.000712816 -0.0580399 0.058539
internal_weight=389 213 176 83 102 130 67 63 61 74 50 71 43 46 46 41
internal_count=389 213 176 83 102 130 67 63 61 74 50 71 43 46 46 41
is_linear=0
shrinkage=0.05


Tree=47
num_leaves=14
num_cat=0
split_feature=20 53 54 54 20 20 51 52 14 48 22 11 20
split_gain=564.904 224.175 159.243 144.319 84.5174 77.8417 60.4101 45.5268 33.9151 29.9569 27.9558 22.3423 15.7271
threshold=67.952180541024958 19.675959263313192 -0.13985338764853597 -0.16779367082789856 89.289740869882039 58.590051811744743 -0.85880924443780049 6.1145910100353698 -0.22252093395631442 6.9286105338120905 68.01655764446987 0.52828508881293679 45.89923939067517
decision_type=2 2 2 2 2 2 2 2 2 2 2 2 2
left_child=2 3 -1 -2 6 7 9 8 -4 -5 -7 -8 -10
right_child=1 -3 5 4 -6 10 11 -9 12 -11 -12 -13 -14
leaf_value=-0.19715845711501456 -0.073379676064765781 0.20668639497519617 -0.047217394811643276 0.025482522375708402 0.12280905498733481 0.022233432918552339 0.092345538945251091 -0.0077930267811951483 -0.14913759942059937 -0.053317228085662582 -0.042825779812154435 0.028187328293430725 -0.092838773960516541
leaf_weight=20 25 22 31 30 36 38 37 21 20 20 29 22 38
leaf_count=20 25 22 31 30 36 38 37 21 20 20 29 22 38
internal_value=-0.00419194 0.0568124 -0.0636719 0.0372774 0.0564281 -0.0484577 0.0343658 -0.0743208 -0.0899358 -0.00598109 -0.00587387 0.0685949 -0.112561
internal_weight=389 192 197 170 145 177 109 110 89 50 67 59 58
internal_count=389 192 197 170 145 177 109 110 89 50 67 59 58
is_linear=0
shrinkage=0.05


Tree=48
num_leaves=14
num_cat=0
split_feature=23 55 52 53 20 14 48 23 21 7 55 21 5
split_gain=542.048 207.092 134.422 125.947 103.176 75.6987 65.7375 28.937 35.5518 28.1114 25.6917 23.5508 10.9134
threshold=76.999832846759077 -0.084350263327133176 -1.934551654425025 18.621280515249207 53.897796304303263 1.0000000180025095e-35 7.2608357564269843 62.465320376020145 73.973828570814803 20.500000000000004 -0.11485511216244858 52.213606314732381 3.5000000000000004
decision_type=2 2 2 2 2 2 2 2 2 2 2 2 2
left_child=1 5 10 4 11 -1 -4 12 9 -9 -2 -3 -6
right_child=2 3 6 -5 7 -7 -8 8 -10 -11 -12 -13 -14
leaf_value=-0.072303199573480789 -0.0097917729220684119 -0.06690746677163234 0.093743013579793685 0.083009324442609514 -0.062332759517819483 -0.1904859059158413 0.20366170187870344 0.0031968899721111464 -0.036488246312844995 0.078830988849721728 0.059536522478277988 -0.13698584351373549 -0.019493399927820856
leaf_weight=29 21 32 31 26 26 26 25 32 29 20 36 20 36
leaf_count=29 21 32 31 26 26 26 25 32 29 20 36 20 36
internal_value=-0.00398512 -0.0417624 0.0881961 -0.0201035 -0.033913 -0.128506 0.143179 -0.0119167 0.00771042 0.0324784 0.0339345 -0.0941679 -0.0376103
internal_weight=389 276 113 221 195 55 56 143 81 52 57 52 62
internal_count=389 276 113 221 195 55 56 143 81 52 57 52 62
is_linear=0
shrinkage=0.05


Tree=49
num_leaves=17
num_cat=0
split_feature=23 52 55 23 23 52 48 23 54 52 20 24 53 20 25 41
split_gain=491.773 195.038 126.013 118.515 64.5657 62.2253 40.1494 37.4312 24.8308 23.3833 19.3986 18.7202 17.0437 16.2394 10.4324 4.75336
threshold=65.202262122974517 1.8037877310590533 -0.15108467417604263 86.962780610904488 91.261570779623284 2.823239565855673 8.5628988107134543 54.280725805732665 0.13837159371363997 9.4816095053785698 56.514065551962666 57.518114062748289 -6.9749688164942816 50.823635074887839 67.475068498590261 7.8576296833029344
decision_type=2 2 2 2 2 2 2 2 2 2 2 2 2 2 2 2
left_child=2 4 -1 9 6 7 12 13 10 15 -7 -9 -2 -4 -14 -3
right_child=1 3 5 -5 -6 8 -8 11 -10 -11 -12 -13 14 -15 -16 -17
leaf_value=-0.18359877278852227 -0.03180025172689091 0.065714839999497773 -0.14533889384066323 0.20653293061310352 0.073223175768093812 -0.072516163858757185 -0.069783484760452708 -0.011178778386234645 0.028790610126480105 0.11536601584645645 -0.01049554271629295 -0.079089056421512677 0.00097242993927018715 -0.080679079178553909 0.044047813415812806 0.030716655696209391
leaf_weight=20 21 21 21 22 30 21 22 20 21 20 32 21 31 20 26 20
leaf_count=20 21 21 21 22 30 21 22 20 21 20 32 21 31 20 26 20
internal_value=-0.00378744 0.047292 -0.0656253 0.107127 0.00899852 -0.0503606 -0.0102728 -0.0803505 -0.0169975 0.070914 -0.0352542 -0.0461915 0.00651607 -0.114192 0.0207511 0.0488805
internal_weight=389 213 176 83 130 156 100 82 74 61 53 41 78 41 57 41
internal_count=389 213 176 83 130 156 100 82 74 61 53 41 78 41 57 41
is_linear=0
shrinkage=0.05


Tree=50
num_leaves=15
num_cat=0
split_feature=47 47 55 5 54 20 51 20 48 4 54 5 7 12
split_gain=589.935 240.613 138.79 95.355 89.6659 62.6787 51.7277 35.9353 32.511 24.3236 23.9125 22.5523 12.0531 10.2486
threshold=61.408187870108812 93.127435748949821 -0.17607583145299552 2.5000000000000004 -0.13807232616298418 91.207918456616127 8.7580833977015988 67.952180541024958 7.7653160328731481 14.500000000000002 0.023763972334234999 3.5000000000000004 15.500000000000002 -0.25065253225872081
decision_type=2 2 2 2 2 2 2 2 2 2 2 2 2 2
left_child=2 4 -1 9 -2 6 7 -6 -5 -4 11 -9 -13 -12
right_child=1 -3 3 8 5 -7 -8 10 -10 -11 13 12 -14 -15
leaf_value=-0.20232807943476969 -0.060201869143810108 0.19943218297900872 -0.13806001820515112 -0.041640588864097446 -0.020666371666477376 0.12541520459957031 0.09390682835020496 -0.018534200559673527 0.036892900279542402 -0.071060808206396348 0.092253023234024567 0.015759617495215286 0.068678766437134331 0.041301058600016677
leaf_weight=20 23 24 29 38 37 21 30 26 20 27 20 24 20 21
leaf_count=20 23 24 29 38 37 21 30 26 20 27 20 24 20 21
internal_value=0.00333855 0.0493256 -0.081022 -0.0595377 0.0329929 0.0438141 0.0340939 0.0218806 -0.0144571 -0.10603 0.0361138 0.0182098 0.0400283 0.0664413
internal_weight=380 246 134 114 222 199 178 148 58 56 111 70 44 41
internal_count=380 246 134 114 222 199 178 148 58 56 111 70 44 41
is_linear=0
shrinkage=0.05


Tree=51
num_leaves=16
num_cat=0
split_feature=47 52 53 23 14 54 52 55 23 20 23 48 32 52 6
split_gain=532.702 242.282 156.274 100.825 66.7685 47.3915 46.432 38.5431 30.9435 30.7759 29.2138 23.1188 17.6351 12.373 11.7079
threshold=61.408187870108812 12.374362023611452 -14.488691600497573 78.25844613778456 -0.22252093395631442 -0.12332251136071258 -1.1345435592642337 0.086001491091208596 95.93220910499609 67.952180541024958 89.289740869882039 6.3731903368042735 80.740896388298623 2.823239565855673 102.50000000000001
decision_type=2 2 2 2 2 2 2 2 2 2 2 2 2 2 2
left_child=2 3 -1 5 13 -2 8 11 12 -7 -8 -6 -5 -4 -11
right_child=1 -3 4 6 7 9 10 -9 -10 14 -12 -13 -14 -15 -16
leaf_value=-0.20567230211561593 -0.066198561472810183 0.20106682631618533 -0.031948584812946129 0.042761047573676741 -0.078909348551906747 -0.019254273215256384 0.068415361494337981 -0.03738804605491923 0.084611594227531048 0.019253779584201568 0.14787717929378671 -0.15641073755067381 -0.023406790651899961 0.01826190630821467 0.068285297950226545
leaf_weight=20 23 23 29 20 20 39 29 24 21 30 20 20 20 21 21
leaf_count=20 23 23 29 20 20 39 29 24 21 30 20 20 20 21 21
internal_value=0.00317322 0.0468733 -0.0769901 0.0308645 -0.05421 -0.00226941 0.0649187 -0.0880029 0.0355863 0.0140679 0.101186 -0.118078 0.00957657 -0.010766 0.0396352
internal_weight=380 246 134 223 114 113 110 64 61 90 49 40 40 50 51
internal_count=380 246 134 223 114 113 110 64 61 90 49 40 40 50 51
is_linear=0
shrinkage=0.05


Tree=52
num_leaves=16
num_cat=0
split_feature=47 52 53 23 5 54 52 53 23 20 23 4 32 21 6
split_gain=481.072 218.743 141.09 91.0482 60.9086 42.7916 41.9177 37.6979 27.9386 27.7937 26.364 26.1186 15.9258 14.8484 10.5647
threshold=61.408187870108812 12.374362023611452 -14.488691600497573 78.25844613778456 2.5000000000000004 -0.12332251136071258 -1.1345435592642337 7.4558684083292741 95.93220910499609 67.952180541024958 89.289740869882039 16.500000000000004 80.740896388298623 51.815151542187571 102.50000000000001
decision_type=2 2 2 2 2 2 2 2 2 2 2 2 2 2 2
left_child=2 3 -1 5 11 -2 8 13 12 -7 -8 -4 -5 -6 -11
right_child=1 -3 4 6 7 9 10 -9 -10 14 -12 -13 -14 -15 -16
leaf_value=-0.19543984879308673 -0.062902961840683766 0.19105700289274191 -0.12367982086037443 0.040633632272333645 -0.015508830630772526 -0.018294021365282787 0.065006349174325004 0.037594808380476276 0.080401064346045673 0.01829428929600407 0.14052010499385756 -0.049622332654293111 -0.022242272795358703 -0.073973916221528033 0.064887214985221472
leaf_weight=20 23 23 29 20 22 39 29 20 21 30 20 21 20 22 21
leaf_count=20 23 23 29 20 22 39 29 20 21 30 20 21 20 22 21
internal_value=0.00301431 0.0445433 -0.0731646 0.0293308 -0.0515165 -0.00215364 0.0616918 -0.0190626 0.0338155 0.0133683 0.0961535 -0.0928366 0.00909392 -0.0449562 0.0376669
internal_weight=380 246 134 223 114 113 110 64 61 90 49 50 40 44 51
internal_count=380 246 134 223 114 113 110 64 61 90 49 50 40 44 51
is_linear=0
shrinkage=0.05


Tree=53
num_leaves=13
num_cat=0
split_feature=51 47 5 47 22 51 5 23 48 48 10 26
split_gain=445.358 409.597 106.464 74.3519 54.618 53.5632 32.9431 27.0793 26.7715 18.9579 9.96237 9.73018
threshold=13.37349749851157 61.408187870108812 1.5000000000000002 88.491639099261008 91.908531109358691 -9.0621478411151539 2.5000000000000004 48.901901759095871 7.0506868760847592 6.3558411212151684 0.25000000000000017 50.902132194777998
decision_type=2 2 2 2 2 2 2 2 2 2 2 2
left_child=1 2 -1 5 -5 -3 9 -4 10 -7 -8 -9
right_child=-2 3 7 4 -6 6 8 11 -10 -11 -12 -13
leaf_value=-0.15405426272002837 0.22070701376817345 -0.048144937761822694 -0.089213887349986587 0.11527355120741761 0.024449536645144127 0.025703833088931812 -0.0065242579005994079 -0.0066178334159252439 0.076121548780132178 -0.034051980481241098 0.041368351856507862 -0.049009249848245347
leaf_weight=37 22 31 33 36 31 25 21 23 37 28 22 34
leaf_count=37 22 31 33 36 31 25 21 23 37 28 22 34
internal_value=0.00286395 -0.010567 -0.082671 0.0290716 0.0734241 0.0108878 0.0247107 -0.0531306 0.0449524 -0.00577579 0.0179021 -0.0320331
internal_weight=380 358 127 231 67 164 133 90 80 53 43 57
internal_count=380 358 127 231 67 164 133 90 80 53 43 57
is_linear=0
shrinkage=0.05


Tree=54
num_leaves=15
num_cat=0
split_feature=51 47 53 20 14 54 48 52 20 4 51 20 3 28
split_gain=402.126 369.823 98.2122 91.96 59.5624 42.7019 34.4548 31.9231 26.8118 23.6324 22.7625 13.9217 8.94663 5.05992
threshold=13.37349749851157 61.408187870108812 -14.488691600497573 90.960703003438013 -0.22252093395631442 -0.021683378063479194 8.1364488307520269 -0.96647422243539072 67.425753451985685 12.500000000000002 4.8502373699114907 75.458087586732859 3.5000000000000004 38.941135685243779
decision_type=2 2 2 2 2 2 2 2 2 2 2 2 2 2
left_child=1 2 -1 5 13 6 11 -5 -7 -10 -6 -3 -11 -4
right_child=-2 3 4 7 10 8 -8 -9 9 12 -12 -13 -14 -15
leaf_value=-0.18015885066185425 0.20972159761446632 -0.02506201354972212 0.00036472394991824976 0.048998966429738083 -0.070175986148207387 -0.0076200963889904265 -0.074543482799138583 0.13213132597925342 0.011804863537325905 0.046862648871497034 -0.1366702311371096 0.028207867826652713 0.090258638760744234 -0.03209965922405799
leaf_weight=20 22 23 21 24 39 33 20 23 32 27 20 26 23 27
leaf_count=20 22 23 21 24 39 33 20 23 32 27 20 26 23 27
internal_value=0.00272096 -0.0100408 -0.0785551 0.0276233 -0.0593666 0.0116276 -0.0194071 0.0899811 0.0302925 0.0456016 -0.0929941 0.00310169 0.0670649 -0.0178213
internal_weight=380 358 127 231 107 184 69 47 115 82 59 49 50 48
internal_count=380 358 127 231 107 184 69 47 115 82 59 49 50 48
is_linear=0
shrinkage=0.05


Tree=55
num_leaves=13
num_cat=0
split_feature=47 52 23 23 11 53 52 50 20 50 23 6
split_gain=298.112 107.728 89.1707 84.454 39.0972 37.9946 29.0413 31.284 20.7212 26.1258 17.115 15.2614
threshold=61.70101792633352 12.374362023611452 46.417392339842777 87.434797322138294 -0.05058416099371614 -10.885209015951892 -0.10076242971555514 7.9133092394547679 65.532872023432716 8.8289591116935888 54.280725805732665 102.50000000000001
decision_type=2 2 2 2 2 2 2 2 2 2 2 2
left_child=2 3 -1 5 -5 -2 10 -8 -7 11 -4 -10
right_child=1 -3 6 4 -6 8 7 -9 9 -11 -12 -13
leaf_value=-0.13352052870169959 -0.059593206605353916 0.1327087216724307 -0.089788066149013968 0.11299214683393566 0.029066856754314002 -0.027043912050240638 -0.045980505514667327 0.037684614630184361 0.014727338896989021 -0.018979999453751083 -0.037983992302192827 0.061374115008762498
leaf_weight=33 23 23 29 28 28 29 25 20 37 29 37 34
leaf_count=33 23 23 29 28 28 29 25 20 37 29 37 34
internal_value=-0.00495187 0.0302284 -0.0614033 0.018814 0.0712452 -0.000503993 -0.0398172 -0.00868403 0.0100306 0.0208484 -0.0609234 0.0371905
internal_weight=375 231 144 208 56 152 111 45 129 100 66 71
internal_count=375 231 144 208 56 152 111 45 129 100 66 71
is_linear=0
shrinkage=0.05


Tree=56
num_leaves=14
num_cat=0
split_feature=47 53 55 14 20 55 4 23 22 48 45 50 28
split_gain=269.166 97.553 84.4261 63.5117 38.0112 30.6391 28.9001 41.1483 21.3654 16.7662 15.8232 11.8821 7.29022
threshold=61.70101792633352 21.753597961132595 -0.15985640017110089 1.0000000180025095e-35 84.595441618701031 -0.034001638504575819 22.500000000000004 56.685217205640946 64.956048161431468 7.0506868760847592 70.3472695086367 7.7052453662183273 64.102969646109116
decision_type=2 2 2 2 2 2 2 2 2 2 2 2 2
left_child=2 3 -1 4 8 -5 7 9 -2 -4 11 -7 -10
right_child=1 -3 6 5 -6 10 -8 -9 12 -11 -12 -13 -14
leaf_value=-0.14839373048883758 0.058841467324134228 0.1198038184094703 -0.050041516586062831 -0.050245450391185602 0.083056040052943841 0.016257852375210814 -0.0026391847217537442 -0.0025679298012380104 0.01967668410277728 -0.10256582034473197 0.040429362759797895 -0.038020360477231625 -0.020975033650218876
leaf_weight=22 24 26 29 34 39 20 34 25 23 34 24 20 21
leaf_count=22 24 26 29 34 39 20 34 25 23 34 24 20 21
internal_value=-0.0047046 0.0287233 -0.058346 0.0170945 0.0437211 -0.0119414 -0.0419587 -0.0570733 0.0209991 -0.0785848 0.00837631 -0.0107837 0.000157782
internal_weight=375 231 144 205 107 98 122 88 68 63 64 40 44
internal_count=375 231 144 205 107 98 122 88 68 63 64 40 44
is_linear=0
shrinkage=0.05


Tree=57
num_leaves=15
num_cat=0
split_feature=23 23 51 52 20 23 31 52 21 27 21 47 20 5
split_gain=245.8 122.269 76.0671 70.7347 43.0426 33.9158 31.5859 23.3891 26.3865 14.8481 14.0807 9.55579 9.20434 3.25635
threshold=73.993432582480594 46.417392339842777 9.8652899311816871 7.7225810300436253 64.231369088416884 92.260990065999252 68.149753944903367 -5.7486378986124995 87.434797322138294 7.0450083261089045 53.988339091749658 53.555805059757851 71.587028661640019 2.5000000000000004
decision_type=2 2 2 2 2 2 2 2 2 2 2 2 2 2
left_child=1 -1 4 5 9 7 12 -2 -9 11 -11 -3 -6 -13
right_child=3 2 -4 -5 6 -7 -8 8 -10 10 -12 13 -14 -15
leaf_value=-0.12294079848646758 -0.026692055681305473 -0.063202061151983721 0.066036661033764543 0.13823623820323847 0.0044835490412836847 0.080847187973466073 -0.040706301779905474 0.064644579487095497 -0.0044617821257638733 -0.040031252182389961 -0.096683529419003766 -0.03450751463414857 0.048435254980675607 -0.0066204570021957017
leaf_weight=33 21 20 23 20 30 30 33 32 24 20 26 22 20 21
leaf_count=33 21 20 23 20 30 30 33 32 24 20 26 22 20 21
internal_value=-0.00447107 -0.0334482 -0.0196381 0.0520567 -0.0299563 0.0357877 -0.00275421 0.0180851 0.0349833 -0.0506025 -0.0723008 -0.0345906 0.0222256 -0.0210512
internal_weight=375 248 215 127 192 107 83 77 56 109 46 63 50 43
internal_count=375 248 215 127 192 107 83 77 56 109 46 63 50 43
is_linear=0
shrinkage=0.05


Tree=58
num_leaves=15
num_cat=0
split_feature=47 51 47 5 21 21 55 5 53 23 51 23 50 10
split_gain=224.347 157.651 79.8131 66.1967 41.1674 36.5298 33.3785 27.4627 27.4435 18.8163 16.0744 13.7348 13.4155 4.75954
threshold=51.198275623152803 13.198177816912493 88.999027019548052 1.5000000000000002 93.028459627551285 47.202308178626893 -0.0091321986479008781 3.5000000000000004 -8.1372389764258255 67.952180541024958 2.0265229558782001 67.952180541024958 8.1057975544392615 0.6830127018922193
decision_type=2 2 2 2 2 2 2 2 2 2 2 2 2 2
left_child=3 2 6 -1 -4 -5 8 9 -2 13 -9 -10 -13 -8
right_child=1 -3 4 5 -6 -7 7 10 11 -11 -12 12 -14 -15
leaf_value=-0.15174300342921895 -0.065660737276586709 0.14628557001386208 0.099286377266100595 -0.011137496105419316 0.013265421341870984 -0.10045243648080089 -0.016354762455912386 0.012083225776061551 -0.045555494303133943 0.024375323725469186 0.066745798134958581 0.028840706675532332 -0.024551091015305185 -0.049268299189224762
leaf_weight=24 35 21 29 27 27 20 26 33 20 23 23 25 22 20
leaf_count=24 35 21 29 27 27 20 26 33 20 23 23 25 22 20
internal_value=-0.00424929 0.0144328 0.00458281 -0.0842184 0.0579987 -0.0493826 -0.0085924 0.00869465 -0.0298142 -0.0123601 0.034702 -0.010944 0.00374358 -0.0308493
internal_weight=375 304 283 71 56 47 227 125 102 69 56 67 47 46
internal_count=375 304 283 71 56 47 227 125 102 69 56 67 47 46
is_linear=0
shrinkage=0.05


Tree=59
num_leaves=15
num_cat=0
split_feature=23 55 52 52 23 23 21 22 5 4 24 52 23 24
split_gain=203.686 101.623 61.7333 49.8221 43.266 29.2026 29.0648 23.4119 21.1232 15.9448 12.2731 12.1195 8.51841 5.87586
threshold=73.993432582480594 -0.14802173526989895 7.7225810300436253 10.845574732032189 56.336380456517425 92.260990065999252 73.230370060962741 88.787809330299169 2.5000000000000004 22.500000000000004 47.819421745832919 -2.375090999457441 63.947194526522573 53.988339091749658
decision_type=2 2 2 2 2 2 2 2 2 2 2 2 2 2
left_child=1 -1 5 4 9 7 8 11 -6 10 -3 -2 -10 -12
right_child=2 3 -4 -5 6 -7 -8 -9 12 -11 13 -13 -14 -15
leaf_value=-0.11999564702320992 0.009532642037054874 -0.099440004843423996 0.12792873008093283 0.043187930055784585 -0.019061921518605585 0.074029187776420591 -0.047561433632797169 -0.023792398272757514 0.0090313484716178158 -0.01627381402554352 -0.031562855276302315 0.058124937683453851 0.054470346224119219 -0.070330034944965938
leaf_weight=28 25 21 20 28 36 30 32 25 20 20 20 27 22 21
leaf_count=28 25 21 20 28 36 30 32 25 20 20 20 27 22 21
internal_value=-0.00403781 -0.0304171 0.0474187 -0.0189442 -0.0280489 0.032218 -0.00748894 0.0157881 0.00892688 -0.0555258 -0.0680606 0.0349224 0.0330243 -0.0516637
internal_weight=375 248 127 220 192 107 110 77 78 82 62 52 42 41
internal_count=375 248 127 220 192 107 110 77 78 82 62 52 42 41
is_linear=0
shrinkage=0.05


Tree=60
num_leaves=15
num_cat=0
split_feature=51 23 25 53 53 14 53 48 39 53 22 48 4 28
split_gain=251.434 176.255 88.0546 73.1817 67.5387 39.2086 31.2254 20.6605 19.4046 13.5101 12.5896 8.44271 6.92355 4.25349
threshold=14.078557424228434 48.572477029293019 74.024782181374363 -7.7504181380365855 -10.259745184422025 -0.22252093395631442 2.8849398779758002 7.5876889864229993 64.0449900230917 0.58916664272475583 66.388557267790631 7.0601036326383779 16.500000000000004 41.688774087853652
decision_type=2 2 2 2 2 2 2 2 2 2 2 2 2 2
left_child=1 3 5 -1 -4 8 7 -6 13 11 -10 -7 -11 -3
right_child=-2 2 4 -5 6 9 -8 -9 10 12 -12 -13 -14 -15
leaf_value=-0.16725926693016885 0.17242671636799678 0.00052299840625987123 -0.032023840471805329 -0.044328021208189197 0.062879607515193711 -0.033363302978710152 0.10453460440039636 0.0014804826484681255 0.059402240184483236 -0.036538361286642659 0.0083351559987908577 -0.078189187574188745 -0.00098331546358971958 -0.03014247685195915
leaf_weight=21 20 20 25 29 37 20 28 22 20 31 31 24 25 25
leaf_count=21 20 20 25 29 37 20 28 22 20 31 31 24 25 25
internal_value=0.000335878 -0.00930964 0.00482095 -0.0962897 0.04018 -0.0153689 0.0609986 0.0401109 0.00741045 -0.0372726 0.0285364 -0.058049 -0.0207847 -0.0164316
internal_weight=378 358 308 50 112 196 87 59 96 100 51 44 56 45
internal_count=378 358 308 50 112 196 87 59 96 100 51 44 56 45
is_linear=0
shrinkage=0.05


Tree=61
num_leaves=15
num_cat=0
split_feature=47 54 20 54 14 48 20 26 54 45 21 25 41 20
split_gain=239.989 159.055 93.824 47.1494 33.9764 34.3404 29.6486 28.2306 26.0706 16.699 15.3943 12.7336 11.1283 5.48323
threshold=93.127435748949821 -0.20586938847551642 59.318741139319663 -0.021683378063479194 -0.22252093395631442 7.2015919996637434 69.186260097307198 68.650809552295286 0.21311034202860893 42.786571487314042 82.666292716543708 67.475068498590261 7.4817683843900067 52.213606314732381
decision_type=2 2 2 2 2 2 2 2 2 2 2 2 2 2
left_child=1 -1 8 4 -4 -6 7 -5 9 -3 11 -8 13 -11
right_child=-2 2 3 6 5 -7 10 -9 -10 12 -12 -13 -14 -15
leaf_value=-0.13903809978007192 0.16844643458205077 -0.084528152397312067 0.027288119180742504 0.051244553367131962 0.0050218216571095153 -0.073762408188953174 0.051134140934072314 -0.020802939923427188 0.012962543245811035 -0.071345357515325586 0.033199227037273835 0.10867563489064647 -0.01116652814837113 -0.03423181620691966
leaf_weight=22 20 24 39 24 28 27 20 31 21 20 32 20 28 22
leaf_count=22 20 24 39 24 28 27 20 31 21 20 32 20 28 22
internal_value=0.000317587 -0.00910554 -0.000544337 0.0184985 -0.00829843 -0.033627 0.0383627 0.0105812 -0.0371674 -0.0484216 0.0594712 0.0802288 -0.035868 -0.0521512
internal_weight=378 358 336 221 94 55 127 55 115 94 72 40 70 42
internal_count=378 358 336 221 94 55 127 55 115 94 72 40 70 42
is_linear=0
shrinkage=0.05


Tree=62
num_leaves=15
num_cat=0
split_feature=52 54 20 53 20 54 25 22 25 22 48 53 22 29
split_gain=226.897 142.603 115.443 42.8822 27.5613 24.3122 19.6094 31.9897 19.3025 12.4071 12.0064 9.76207 9.31831 6.48374
threshold=15.025518345565912 -0.20586938847551642 69.186260097307198 -10.071488840078326 43.833943999150044 -0.047606491595681193 89.440641059770329 88.622064871256953 64.320836839546388 65.977361166489302 6.4503408768758907 2.8849398779758002 52.213606314732381 67.787003482462197
decision_type=2 2 2 2 2 2 2 2 2 2 2 2 2 2
left_child=1 -1 4 -4 -3 13 7 8 -5 10 12 -10 -7 -6
right_child=-2 2 3 6 5 9 -8 -9 11 -11 -12 -13 -14 -15
leaf_value=-0.13211765184459104 0.15963722326179253 -0.081860941913314333 -0.037198731392177185 0.0095352952707544597 -0.033674964058324999 -0.039486060742826311 0.079188533480591877 -0.020729703743220407 0.037471506335731757 -0.032459596648195387 0.025532559752801932 0.079653267044675319 0.0060796488061606643 -0.072545756576185547
leaf_weight=22 21 21 20 26 24 20 27 23 25 37 33 33 25 21
leaf_count=22 21 21 20 26 24 20 27 23 25 37 33 33 25 21
internal_value=0.000302013 -0.00909872 -0.000967932 0.0308267 -0.0280494 -0.0209087 0.0410372 0.0312985 0.0456115 -0.00864634 0.00261277 0.0616533 -0.0141036 -0.0520462
internal_weight=378 357 335 154 181 160 134 107 84 115 78 58 45 45
internal_count=378 357 335 154 181 160 134 107 84 115 78 58 45 45
is_linear=0
shrinkage=0.05


Tree=63
num_leaves=14
num_cat=0
split_feature=51 23 52 20 54 5 54 52 20 20 6 20 28
split_gain=211.404 136.913 87.2862 59.295 32.2882 25.9839 25.51 22.2235 18.8798 13.1169 10.8768 16.2132 9.87234
threshold=13.198177816912493 55.003739914879326 -2.7729247146991507 90.960703003438013 -0.058386618055336119 2.5000000000000004 -0.045150354790320195 5.4796599300336135 66.611977465121953 50.713916587457881 100.50000000000001 73.260030122419479 50.070232069398322
decision_type=2 2 2 2 2 2 2 2 2 2 2 2 2
left_child=1 2 -1 5 -5 6 -3 10 -8 -4 -7 12 -12
right_child=-2 3 9 4 -6 7 8 -9 -10 -11 11 -13 -14
leaf_value=-0.15358667914618815 0.13485166445869362 -0.065319757683067026 -0.059408189961836458 0.019767838268123603 0.10787912036908504 -0.0214869907815156 -0.036670402715850973 0.047382617307786257 0.018647010421211068 -0.013849134843380071 0.017943191260615467 0.048240108441084756 -0.028759445981607179
leaf_weight=21 27 26 31 22 20 38 28 32 34 33 23 21 22
leaf_count=21 27 26 31 22 20 38 28 32 34 33 23 21 22
internal_value=0.000284889 -0.0100876 -0.0652959 0.00755324 0.0620009 -0.00265651 -0.02383 0.0110147 -0.00627335 -0.0360531 -0.000162191 0.012054 -0.00479149
internal_weight=378 351 85 266 42 224 88 136 62 64 104 66 45
internal_count=378 351 85 266 42 224 88 136 62 64 104 66 45
is_linear=0
shrinkage=0.05


Tree=64
num_leaves=15
num_cat=0
split_feature=47 54 20 54 14 48 48 20 21 54 45 24 4 20
split_gain=194.919 123.801 71.4617 37.2347 27.4725 29.3614 24.8984 22.0639 23.9969 19.8741 13.1902 10.0392 7.23165 3.32097
threshold=93.127435748949821 -0.20586938847551642 59.318741139319663 -0.021683378063479194 -0.22252093395631442 7.2015919996637434 8.7937517907918519 87.166975682154956 66.540501647222513 0.21311034202860893 42.786571487314042 50.823635074887839 19.500000000000004 53.897796304303263
decision_type=2 2 2 2 2 2 2 2 2 2 2 2 2 2
left_child=1 -1 9 4 -4 -6 7 8 -5 10 -3 -12 -10 -13
right_child=-2 2 3 6 5 -7 -8 -9 12 -11 11 13 -14 -15
leaf_value=-0.12285319491040921 0.15179257706845578 -0.074559228474668435 0.024134866761810637 0.047438613794664464 0.0050882554086077681 -0.067750188177692058 0.077233875508623553 0.067787698937041493 -0.025829243887698534 0.011115427551817556 -0.0063945638593928562 -0.06052495852042148 0.011743432853994597 -0.032006148542418622
leaf_weight=22 20 24 39 28 28 27 26 21 30 21 26 21 22 23
leaf_count=22 20 24 39 28 28 27 26 21 30 21 26 21 22 23
internal_value=0.00027019 -0.00822081 -0.000665922 0.0159513 -0.00785735 -0.0306361 0.0336052 0.0222593 0.010176 -0.0326295 -0.0424569 -0.0312884 -0.00984511 -0.0458372
internal_weight=378 358 336 221 94 55 127 101 80 115 94 70 52 44
internal_count=378 358 336 221 94 55 127 101 80 115 94 70 52 44
is_linear=0
shrinkage=0.05


Tree=65
num_leaves=15
num_cat=0
split_feature=23 52 51 20 54 5 12 6 20 22 11 5 6 34
split_gain=132.19 53.8381 51.6973 49.4039 21.8933 23.1497 19.2555 16.6653 12.9614 13.8145 12.8771 11.2189 6.57061 4.34459
threshold=54.280725805732665 -1.5148689709576002 13.198177816912493 89.564019663589605 -0.068964996920470076 3.5000000000000004 -0.15065085054871696 290.50000000000006 69.01471815218197 63.75335246580439 0.61132034890850739 2.5000000000000004 102.50000000000001 7.1908695858212317
decision_type=2 2 2 2 2 2 2 2 2 2 2 2 2 2
left_child=1 -1 3 4 5 -2 -5 11 9 13 12 -3 -10 -6
right_child=2 7 -4 6 8 -7 -8 -9 10 -11 -12 -13 -14 -15
leaf_value=-0.12131858427093659 -0.065414270783361067 -0.038185061696228255 0.088105854729182032 0.020584855691234083 -0.001792888509294998 -0.00036994795143789963 0.086587684208921378 -0.066025384563904305 0.020075793760448601 -0.02760139364216839 -0.0083283455570951053 0.013909660431727842 0.055116823062115183 0.030510241199581335
leaf_weight=23 24 21 22 21 21 32 24 23 32 39 24 20 24 20
leaf_count=23 24 21 22 21 21 32 24 23 32 39 24 20 24 20
internal_value=-0.00190661 -0.0557838 0.0146525 0.00841054 -0.00150445 -0.0284021 0.0560112 -0.0320017 0.00789036 -0.0062895 0.0221228 -0.0126793 0.035254 0.013879
internal_weight=370 87 283 261 216 56 45 64 160 80 80 41 56 41
internal_count=370 87 283 261 216 56 45 64 160 80 80 41 56 41
is_linear=0
shrinkage=0.05


Tree=66
num_leaves=14
num_cat=0
split_feature=23 53 27 53 25 41 5 52 22 51 42 25 25
split_gain=120.773 50.9637 47.2552 35.9449 54.5191 17.3608 15.3572 16.9109 14.7211 13.2134 11.6612 5.01059 3.41703
threshold=57.55054165672032 23.823988574719959 8.4626857736310352 -10.259745184422025 68.01655764446987 7.0884317970034596 3.5000000000000004 2.3106746455618503 87.434797322138294 -6.5758218169109588 51.821610474856108 49.050467675910234 52.709581912859477
decision_type=2 2 2 2 2 2 2 2 2 2 2 2 2
left_child=2 3 5 9 10 -1 8 -8 -6 -2 12 -7 -5
right_child=1 -3 -4 4 6 11 7 -9 -10 -11 -12 -13 -14
leaf_value=-0.060891204987174909 -0.058743605267138503 0.090953449082176827 -0.10670611141657688 -0.01365096795050454 0.040652299444655628 -0.02956251997129742 0.032425304238809231 0.086110677990359763 -0.0095734594349479278 -0.0023671479108025185 -0.038276543249175003 0.00084688569556173182 0.01316214006366655
leaf_weight=27 22 21 25 21 39 23 32 28 23 20 30 32 27
leaf_count=27 22 21 25 21 39 23 32 28 23 20 30 32 27
internal_value=-0.00181147 0.0163959 -0.0465844 0.00987047 0.0187179 -0.028086 0.0395898 0.0576633 0.0219542 -0.0320858 -0.0138728 -0.0118096 0.00132346
internal_weight=370 263 107 242 200 82 122 60 62 42 78 55 48
internal_count=370 263 107 242 200 82 122 60 62 42 78 55 48
is_linear=0
shrinkage=0.05


Tree=67
num_leaves=15
num_cat=0
split_feature=23 55 51 20 54 5 12 5 28 20 11 45 20 6
split_gain=109.109 47.8928 44.8817 42.013 17.607 20.5279 16.7918 14.4854 20.5144 10.7365 11.5465 10.076 8.49833 5.55827
threshold=54.280725805732665 -0.040167653507888194 13.198177816912493 89.564019663589605 -0.068964996920470076 3.5000000000000004 -0.15065085054871696 1.5000000000000002 40.593378193407432 69.01471815218197 0.61132034890850739 60.979193778747977 57.726935686832256 102.50000000000001
decision_type=2 2 2 2 2 2 2 2 2 2 2 2 2 2
left_child=1 -1 3 4 5 -2 -5 -3 -9 11 13 12 -6 -11
right_child=2 7 -4 6 9 -7 -8 8 -10 10 -12 -13 -14 -15
leaf_value=-0.11435573476037995 -0.060614035046694187 -0.05971056354614708 0.081761356851094438 0.018306126759798043 -0.014296995608437483 0.00033093107707589587 0.079953608396018686 0.02367073752038993 -0.046847925534406996 0.018200867373577533 -0.0090882211057971615 -0.029630405139626094 0.026449678525177423 0.050454272941929668
leaf_weight=22 24 24 22 21 24 32 24 21 20 32 24 29 27 24
leaf_count=22 24 24 22 21 24 32 24 21 20 32 24 29 27 24
internal_value=-0.00172232 -0.0506714 0.0133205 0.00750333 -0.00163823 -0.0257607 0.0514 -0.0288973 -0.0106372 0.00678422 0.0197399 -0.00611755 0.00718647 0.0321782
internal_weight=370 87 283 261 216 56 45 65 41 160 80 80 51 56
internal_count=370 87 283 261 216 56 45 65 41 160 80 80 51 56
is_linear=0
shrinkage=0.05


Tree=68
num_leaves=14
num_cat=0
split_feature=23 53 27 53 25 48 41 5 52 22 40 23 25
split_gain=99.5222 43.7107 42.1806 30.7696 46.6574 17.3259 15.7464 13.1038 14.9628 13.8228 9.84461 4.76396 4.62953
threshold=57.55054165672032 23.823988574719959 8.4626857736310352 -10.259745184422025 68.01655764446987 7.7912302866921186 7.0884317970034596 3.5000000000000004 2.3106746455618503 87.434797322138294 67.176581422541574 65.202262122974517 49.050467675910234
decision_type=2 2 2 2 2 2 2 2 2 2 2 2 2
left_child=2 3 6 5 10 -2 -1 9 -9 -6 11 -5 -8
right_child=1 -3 -4 4 7 -7 12 8 -10 -11 -12 -13 -14
leaf_value=-0.056038305173006002 0.00046303536557503952 0.083941078620358101 -0.099078842801639283 -0.012360716908666086 0.038167517679407625 -0.063528881685354213 -0.026384737483781132 0.029296505246949711 0.079799848654410172 -0.010502208527419475 -0.036149922786504543 0.019283775269373585 0.0028604759849394697
leaf_weight=27 22 21 25 29 39 20 23 32 28 23 29 20 32
leaf_count=27 22 21 25 29 39 20 23 32 28 23 29 20 32
internal_value=-0.00163533 0.0148915 -0.04228 0.00884671 0.0170339 -0.0299691 -0.0248027 0.0363435 0.0530415 0.0200443 -0.0131121 0.000466538 -0.00930429
internal_weight=370 263 107 242 200 42 82 122 60 62 78 49 55
internal_count=370 263 107 242 200 42 82 122 60 62 78 49 55
is_linear=0
shrinkage=0.05


Tree=69
num_leaves=15
num_cat=0
split_feature=23 27 51 20 5 54 54 12 54 5 20 23 42 50
split_gain=91.1092 49.7144 47.7036 39.8986 16.5659 26.2589 18.8095 14.6452 9.86198 10.011 7.86694 7.37248 6.67471 6.11318
threshold=51.262705524136514 8.4626857736310352 13.198177816912493 89.564019663589605 3.5000000000000004 -0.049097798393085305 0.091792558526184301 -0.15065085054871696 0.07998066509397074 5.5000000000000009 63.237500891528235 75.906166515169488 48.404775251245319 7.9870113797117259
decision_type=2 2 2 2 2 2 2 2 2 2 2 2 2 2
left_child=1 13 3 4 5 -2 11 -5 9 12 -8 -7 -6 -1
right_child=2 -3 -4 7 8 6 10 -9 -10 -11 -12 -13 -14 -15
leaf_value=-0.044280208809680845 -0.056895503659184977 -0.11843889632496224 0.077412984047193253 0.016262557219837517 -0.0044059733072322263 0.0019177157607838864 -0.050325244368535076 0.073847046885368917 0.042330895216014248 -0.018606754187552543 -0.008136193027634837 0.039518298344010147 0.032115637546906432 -0.0066788766033205639
leaf_weight=21 30 21 24 21 21 38 21 24 20 32 24 20 30 23
leaf_count=21 30 21 24 21 21 38 21 24 20 32 24 20 30 23
internal_value=-0.00155357 -0.0552635 0.00989079 0.00408049 -0.00413311 -0.015801 -0.00373969 0.0471808 0.0108854 0.00320623 -0.0280032 0.0150152 0.0170003 -0.0247981
internal_weight=370 65 305 281 236 133 103 45 103 83 45 58 51 44
internal_count=370 65 305 281 236 133 103 45 103 83 45 58 51 44
is_linear=0
shrinkage=0.05


Tree=70
num_leaves=14
num_cat=0
split_feature=52 53 25 53 21 20 48 21 12 51 25 12 34
split_gain=242.249 103.695 46.0616 28.667 23.8686 26.9989 20.2582 10.4233 9.36335 9.35574 13.627 7.34851 6.8774
threshold=16.009762450919272 -14.90085820105144 69.241585018485395 5.1456169879554254 75.385967294385566 62.219426388889651 7.4540962330699552 58.450340275749603 -0.15065085054871696 7.1432599849357361 47.176570118943964 -0.34552334190817774 7.0413936971855735
decision_type=2 2 2 2 2 2 2 2 2 2 2 2 2
left_child=1 -1 4 6 5 7 11 9 -7 10 -3 -4 -12
right_child=-2 2 3 -5 -6 8 -8 -9 -10 -11 12 -13 -14
leaf_value=-0.092291490720117927 0.16257725966108197 -0.05343063833837608 0.0064185900116398315 0.060471777290379593 -0.06596081586582446 -0.0011973157533923572 -0.019625810290764607 -0.05149744332507538 0.035053874534242462 0.014526824512291904 -0.02790963955927844 0.04476555252998473 0.012431647661415969
leaf_weight=33 22 25 22 38 20 38 37 26 33 20 20 30 22
leaf_count=33 22 25 22 38 20 38 37 26 33 20 20 30 22
internal_value=0.00183286 -0.00791072 0.000512101 0.0241554 -0.0141871 -0.00849963 0.00854295 -0.023691 0.0156071 -0.015274 -0.0242527 0.0286813 -0.00668039
internal_weight=386 364 331 127 204 184 89 113 71 87 67 52 42
internal_count=386 364 331 127 204 184 89 113 71 87 67 52 42
is_linear=0
shrinkage=0.05


Tree=71
num_leaves=15
num_cat=0
split_feature=52 55 48 14 20 48 25 53 34 22 23 43 32 11
split_gain=218.734 93.7846 77.2697 42.6876 26.6722 22.4862 20.3046 12.9705 10.4044 10.0535 9.88709 9.66049 6.03146 3.85127
threshold=16.009762450919272 -0.14155917844960822 8.3773145297306844 -0.22252093395631442 84.595441618701031 6.7084887509224158 50.541046912785951 4.5364806506822335 6.9127567131531906 68.672268690211141 66.790517036145346 78.513227367123378 78.993554225297757 -0.15123342103804657
decision_type=2 2 2 2 2 2 2 2 2 2 2 2 2 2
left_child=1 2 -1 4 9 6 -5 11 -8 10 13 -7 -13 -3
right_child=-2 3 -4 5 -6 7 8 -9 -10 -11 -12 12 -14 -15
leaf_value=-0.019957880903518081 0.15448518107785861 0.023901294949916919 -0.14695789659794289 -0.034352769174021795 0.059055030445648929 -0.073083614443072029 0.0015336586517995577 -0.0041138126889237528 0.042961090744895743 -0.014293951182889187 0.048857043761212672 -0.010235704267536526 -0.049466966706054716 -0.0042589736658271097
leaf_weight=30 22 21 20 24 38 20 35 30 27 30 21 20 20 28
leaf_count=30 22 21 20 24 38 20 35 30 27 30 21 20 20 28
